<?xml version="1.0"?>
<opencv_storage>
<cascade>
  <stageType>BOOST</stageType>
  <featureType>HAAR</featureType>
  <height>32</height>
  <width>32</width>
  <stageParams>
    <boostType>GAB</boostType>
    <minHitRate>9.9500000476837158e-01</minHitRate>
    <maxFalseAlarm>5.0000000000000000e-01</maxFalseAlarm>
    <weightTrimRate>9.4999998807907104e-01</weightTrimRate>
    <maxDepth>1</maxDepth>
    <maxWeakCount>100</maxWeakCount></stageParams>
  <featureParams>
    <maxCatCount>0</maxCatCount>
    <featSize>1</featSize>
    <mode>BASIC</mode></featureParams>
  <stageNum>13</stageNum>
  <stages>
    <!-- stage 0 -->
    <_>
      <maxWeakCount>6</maxWeakCount>
      <stageThreshold>-1.3922327756881714e+00</stageThreshold>
      <weakClassifiers>
        <_>
          <internalNodes>
            0 -1 35 -1.0272977873682976e-02</internalNodes>
          <leafValues>
            5.7142859697341919e-01 -8.8582301139831543e-01</leafValues></_>
        <_>
          <internalNodes>
            0 -1 53 8.1253379583358765e-02</internalNodes>
          <leafValues>
            -7.7236163616180420e-01 3.6690673232078552e-01</leafValues></_>
        <_>
          <internalNodes>
            0 -1 67 2.6368241378804669e-05</internalNodes>
          <leafValues>
            1.6641093790531158e-01 -1.</leafValues></_>
        <_>
          <internalNodes>
            0 -1 67 -2.2661748516838998e-05</internalNodes>
          <leafValues>
            -8.7102395296096802e-01 3.4184822440147400e-01</leafValues></_>
        <_>
          <internalNodes>
            0 -1 11 -1.5728484140709043e-04</internalNodes>
          <leafValues>
            -1. 2.0016831159591675e-01</leafValues></_>
        <_>
          <internalNodes>
            0 -1 31 -1.6802493482828140e-02</internalNodes>
          <leafValues>
            7.7039659023284912e-01 -4.0009075403213501e-01</leafValues></_></weakClassifiers></_>
    <!-- stage 1 -->
    <_>
      <maxWeakCount>5</maxWeakCount>
      <stageThreshold>-1.6598117351531982e+00</stageThreshold>
      <weakClassifiers>
        <_>
          <internalNodes>
            0 -1 18 -1.4756806194782257e-01</internalNodes>
          <leafValues>
            5.3846156597137451e-01 -8.9817482233047485e-01</leafValues></_>
        <_>
          <internalNodes>
            0 -1 11 3.3218195312656462e-05</internalNodes>
          <leafValues>
            1.5843068063259125e-01 -9.2620378732681274e-01</leafValues></_>
        <_>
          <internalNodes>
            0 -1 66 2.1700536308344454e-05</internalNodes>
          <leafValues>
            1.0712590813636780e-01 -9.5997196435928345e-01</leafValues></_>
        <_>
          <internalNodes>
            0 -1 45 -2.7316915802657604e-03</internalNodes>
          <leafValues>
            4.0473639965057373e-01 -6.0066109895706177e-01</leafValues></_>
        <_>
          <internalNodes>
            0 -1 28 -1.3784445822238922e-02</internalNodes>
          <leafValues>
            8.1232905387878418e-01 -3.4729549288749695e-01</leafValues></_></weakClassifiers></_>
    <!-- stage 2 -->
    <_>
      <maxWeakCount>4</maxWeakCount>
      <stageThreshold>-1.6319650411605835e+00</stageThreshold>
      <weakClassifiers>
        <_>
          <internalNodes>
            0 -1 7 -3.5426992177963257e-01</internalNodes>
          <leafValues>
            3.5849055647850037e-01 -8.9038461446762085e-01</leafValues></_>
        <_>
          <internalNodes>
            0 -1 9 -6.2651872634887695e-02</internalNodes>
          <leafValues>
            5.0852507352828979e-01 -6.9319373369216919e-01</leafValues></_>
        <_>
          <internalNodes>
            0 -1 1 -8.5473787039518356e-03</internalNodes>
          <leafValues>
            5.9047210216522217e-01 -5.4083025455474854e-01</leafValues></_>
        <_>
          <internalNodes>
            0 -1 30 -1.4427038840949535e-03</internalNodes>
          <leafValues>
            4.9244350194931030e-01 -6.2884497642517090e-01</leafValues></_></weakClassifiers></_>
    <!-- stage 3 -->
    <_>
      <maxWeakCount>4</maxWeakCount>
      <stageThreshold>-1.7704637050628662e+00</stageThreshold>
      <weakClassifiers>
        <_>
          <internalNodes>
            0 -1 5 -2.0135515928268433e-01</internalNodes>
          <leafValues>
            9.9099099636077881e-02 -9.3482691049575806e-01</leafValues></_>
        <_>
          <internalNodes>
            0 -1 54 5.0639137625694275e-02</internalNodes>
          <leafValues>
            -7.5557470321655273e-01 1.9370216131210327e-01</leafValues></_>
        <_>
          <internalNodes>
            0 -1 40 -4.3060237658210099e-05</internalNodes>
          <leafValues>
            4.6067741513252258e-01 -5.9979826211929321e-01</leafValues></_>
        <_>
          <internalNodes>
            0 -1 29 -6.1722210375592113e-05</internalNodes>
          <leafValues>
            5.4429417848587036e-01 -5.1418989896774292e-01</leafValues></_></weakClassifiers></_>
    <!-- stage 4 -->
    <_>
      <maxWeakCount>5</maxWeakCount>
      <stageThreshold>-1.9708739519119263e+00</stageThreshold>
      <weakClassifiers>
        <_>
          <internalNodes>
            0 -1 39 2.5897139310836792e-01</internalNodes>
          <leafValues>
            -9.2133724689483643e-01 3.9473685622215271e-01</leafValues></_>
        <_>
          <internalNodes>
            0 -1 58 5.5643772611801978e-06</internalNodes>
          <leafValues>
            -7.2635263204574585e-01 4.3495163321495056e-01</leafValues></_>
        <_>
          <internalNodes>
            0 -1 44 -5.4673619160894305e-06</internalNodes>
          <leafValues>
            6.7967218160629272e-01 -4.8663455247879028e-01</leafValues></_>
        <_>
          <internalNodes>
            0 -1 2 -1.1129134893417358e-01</internalNodes>
          <leafValues>
            6.4800894260406494e-01 -5.3603637218475342e-01</leafValues></_>
        <_>
          <internalNodes>
            0 -1 46 -5.4312577049131505e-06</internalNodes>
          <leafValues>
            7.1208822727203369e-01 -4.6181735396385193e-01</leafValues></_></weakClassifiers></_>
    <!-- stage 5 -->
    <_>
      <maxWeakCount>6</maxWeakCount>
      <stageThreshold>-2.2234628200531006e+00</stageThreshold>
      <weakClassifiers>
        <_>
          <internalNodes>
            0 -1 47 -3.6757041234523058e-03</internalNodes>
          <leafValues>
            5.8823529630899429e-02 -8.7332051992416382e-01</leafValues></_>
        <_>
          <internalNodes>
            0 -1 23 4.5023739337921143e-02</internalNodes>
          <leafValues>
            -5.9854739904403687e-01 5.3598850965499878e-01</leafValues></_>
        <_>
          <internalNodes>
            0 -1 26 -6.8939785705879331e-04</internalNodes>
          <leafValues>
            5.4175651073455811e-01 -4.4560465216636658e-01</leafValues></_>
        <_>
          <internalNodes>
            0 -1 4 -5.0622707931324840e-05</internalNodes>
          <leafValues>
            -8.1347924470901489e-01 2.9560783505439758e-01</leafValues></_>
        <_>
          <internalNodes>
            0 -1 12 -8.6929704993963242e-03</internalNodes>
          <leafValues>
            -8.7417608499526978e-01 2.1412304043769836e-01</leafValues></_>
        <_>
          <internalNodes>
            0 -1 6 5.9001104091294110e-06</internalNodes>
          <leafValues>
            2.7257797122001648e-01 -8.1808120012283325e-01</leafValues></_></weakClassifiers></_>
    <!-- stage 6 -->
    <_>
      <maxWeakCount>5</maxWeakCount>
      <stageThreshold>-1.7904558181762695e+00</stageThreshold>
      <weakClassifiers>
        <_>
          <internalNodes>
            0 -1 50 1.5778352320194244e-01</internalNodes>
          <leafValues>
            -9.1200000047683716e-01 5.3763441741466522e-02</leafValues></_>
        <_>
          <internalNodes>
            0 -1 55 3.4365572035312653e-02</internalNodes>
          <leafValues>
            -7.4732196331024170e-01 -1.7210835590958595e-02</leafValues></_>
        <_>
          <internalNodes>
            0 -1 13 4.1342573240399361e-05</internalNodes>
          <leafValues>
            1.5189154446125031e-01 -8.7493181228637695e-01</leafValues></_>
        <_>
          <internalNodes>
            0 -1 59 1.0699328267946839e-03</internalNodes>
          <leafValues>
            1.4361563324928284e-01 -9.4603312015533447e-01</leafValues></_>
        <_>
          <internalNodes>
            0 -1 37 2.0159128325758502e-05</internalNodes>
          <leafValues>
            -4.2664101719856262e-01 4.4569256901741028e-01</leafValues></_></weakClassifiers></_>
    <!-- stage 7 -->
    <_>
      <maxWeakCount>5</maxWeakCount>
      <stageThreshold>-1.4738640785217285e+00</stageThreshold>
      <weakClassifiers>
        <_>
          <internalNodes>
            0 -1 49 2.0241647958755493e-01</internalNodes>
          <leafValues>
            -9.2819428443908691e-01 -1.9178082048892975e-01</leafValues></_>
        <_>
          <internalNodes>
            0 -1 61 -5.6108938224497251e-06</internalNodes>
          <leafValues>
            -9.2615365982055664e-01 -1.6105325520038605e-01</leafValues></_>
        <_>
          <internalNodes>
            0 -1 17 -3.6982223391532898e-03</internalNodes>
          <leafValues>
            -8.8293641805648804e-01 1.3175453245639801e-01</leafValues></_>
        <_>
          <internalNodes>
            0 -1 12 2.4895544629544020e-03</internalNodes>
          <leafValues>
            2.7110862731933594e-01 -7.2334110736846924e-01</leafValues></_>
        <_>
          <internalNodes>
            0 -1 52 3.4582029911689460e-05</internalNodes>
          <leafValues>
            -6.1816382408142090e-01 2.5589823722839355e-01</leafValues></_></weakClassifiers></_>
    <!-- stage 8 -->
    <_>
      <maxWeakCount>4</maxWeakCount>
      <stageThreshold>-1.5912809371948242e+00</stageThreshold>
      <weakClassifiers>
        <_>
          <internalNodes>
            0 -1 36 -2.6282889302819967e-03</internalNodes>
          <leafValues>
            7.2463765740394592e-02 -8.9062500000000000e-01</leafValues></_>
        <_>
          <internalNodes>
            0 -1 41 -1.1610888759605587e-04</internalNodes>
          <leafValues>
            1.7898215353488922e-01 -7.5383913516998291e-01</leafValues></_>
        <_>
          <internalNodes>
            0 -1 25 6.8467771634459496e-03</internalNodes>
          <leafValues>
            -4.2589005827903748e-01 6.9487929344177246e-01</leafValues></_>
        <_>
          <internalNodes>
            0 -1 16 -4.8322981456294656e-06</internalNodes>
          <leafValues>
            4.7907322645187378e-01 -4.2363491654396057e-01</leafValues></_></weakClassifiers></_>
    <!-- stage 9 -->
    <_>
      <maxWeakCount>6</maxWeakCount>
      <stageThreshold>-1.6241252422332764e+00</stageThreshold>
      <weakClassifiers>
        <_>
          <internalNodes>
            0 -1 48 2.1841894090175629e-01</internalNodes>
          <leafValues>
            -8.8449847698211670e-01 -3.2075470685958862e-01</leafValues></_>
        <_>
          <internalNodes>
            0 -1 3 -8.6647957563400269e-02</internalNodes>
          <leafValues>
            2.6543898507952690e-02 -6.7571753263473511e-01</leafValues></_>
        <_>
          <internalNodes>
            0 -1 62 -1.9331008661538363e-04</internalNodes>
          <leafValues>
            -8.5701221227645874e-01 1.0519002377986908e-01</leafValues></_>
        <_>
          <internalNodes>
            0 -1 51 -5.6460732594132423e-05</internalNodes>
          <leafValues>
            4.2712673544883728e-01 -4.0559849143028259e-01</leafValues></_>
        <_>
          <internalNodes>
            0 -1 43 -1.5645817620679736e-04</internalNodes>
          <leafValues>
            4.6396648883819580e-01 -3.6161118745803833e-01</leafValues></_>
        <_>
          <internalNodes>
            0 -1 63 1.9255044171586633e-03</internalNodes>
          <leafValues>
            1.6799448430538177e-01 -9.2972862720489502e-01</leafValues></_></weakClassifiers></_>
    <!-- stage 10 -->
    <_>
      <maxWeakCount>7</maxWeakCount>
      <stageThreshold>-1.5192209482192993e+00</stageThreshold>
      <weakClassifiers>
        <_>
          <internalNodes>
            0 -1 27 -1.0808480903506279e-02</internalNodes>
          <leafValues>
            -4.1843971610069275e-01 -8.9075630903244019e-01</leafValues></_>
        <_>
          <internalNodes>
            0 -1 24 -4.4866692274808884e-02</internalNodes>
          <leafValues>
            3.6255571246147156e-01 -5.6174671649932861e-01</leafValues></_>
        <_>
          <internalNodes>
            0 -1 38 4.8322981456294656e-06</internalNodes>
          <leafValues>
            -4.3963107466697693e-01 3.7762519717216492e-01</leafValues></_>
        <_>
          <internalNodes>
            0 -1 8 1.8224232917418703e-05</internalNodes>
          <leafValues>
            1.8856203556060791e-01 -7.9666018486022949e-01</leafValues></_>
        <_>
          <internalNodes>
            0 -1 34 -4.0999002521857619e-04</internalNodes>
          <leafValues>
            4.5474722981452942e-01 -3.4207573533058167e-01</leafValues></_>
        <_>
          <internalNodes>
            0 -1 60 -5.1819793043250684e-06</internalNodes>
          <leafValues>
            -9.1968578100204468e-01 2.0040753483772278e-01</leafValues></_>
        <_>
          <internalNodes>
            0 -1 57 -1.4043602277524769e-05</internalNodes>
          <leafValues>
            3.8693913817405701e-01 -4.6200415492057800e-01</leafValues></_></weakClassifiers></_>
    <!-- stage 11 -->
    <_>
      <maxWeakCount>7</maxWeakCount>
      <stageThreshold>-1.7377362251281738e+00</stageThreshold>
      <weakClassifiers>
        <_>
          <internalNodes>
            0 -1 14 -6.2161937355995178e-02</internalNodes>
          <leafValues>
            4.2857143282890320e-01 -8.4615385532379150e-01</leafValues></_>
        <_>
          <internalNodes>
            0 -1 15 4.0923552587628365e-03</internalNodes>
          <leafValues>
            -6.5100330114364624e-01 -1.7790565267205238e-02</leafValues></_>
        <_>
          <internalNodes>
            0 -1 56 1.2260317453183234e-04</internalNodes>
          <leafValues>
            1.4372824132442474e-01 -6.6327792406082153e-01</leafValues></_>
        <_>
          <internalNodes>
            0 -1 22 7.7631041407585144e-02</internalNodes>
          <leafValues>
            -4.2315253615379333e-01 2.9478290677070618e-01</leafValues></_>
        <_>
          <internalNodes>
            0 -1 0 1.0570643842220306e-01</internalNodes>
          <leafValues>
            2.6136758923530579e-01 -6.5419423580169678e-01</leafValues></_>
        <_>
          <internalNodes>
            0 -1 33 2.7773421606980264e-05</internalNodes>
          <leafValues>
            -4.2623537778854370e-01 3.0139291286468506e-01</leafValues></_>
        <_>
          <internalNodes>
            0 -1 42 -1.4664307236671448e-03</internalNodes>
          <leafValues>
            4.0133938193321228e-01 -3.2801705598831177e-01</leafValues></_></weakClassifiers></_>
    <!-- stage 12 -->
    <_>
      <maxWeakCount>7</maxWeakCount>
      <stageThreshold>-1.5540537834167480e+00</stageThreshold>
      <weakClassifiers>
        <_>
          <internalNodes>
            0 -1 10 -6.8987216800451279e-03</internalNodes>
          <leafValues>
            6.3636362552642822e-01 -8.4473198652267456e-01</leafValues></_>
        <_>
          <internalNodes>
            0 -1 21 2.1090163290500641e-01</internalNodes>
          <leafValues>
            -6.5414410829544067e-01 4.0459681302309036e-02</leafValues></_>
        <_>
          <internalNodes>
            0 -1 32 2.3175589740276337e-02</internalNodes>
          <leafValues>
            -2.3385718464851379e-01 6.6835278272628784e-01</leafValues></_>
        <_>
          <internalNodes>
            0 -1 64 -7.2994557740457822e-06</internalNodes>
          <leafValues>
            -8.5012125968933105e-01 1.7221875488758087e-01</leafValues></_>
        <_>
          <internalNodes>
            0 -1 19 -9.9580665118992329e-04</internalNodes>
          <leafValues>
            3.4284880757331848e-01 -3.6534887552261353e-01</leafValues></_>
        <_>
          <internalNodes>
            0 -1 65 5.1729084589169361e-06</internalNodes>
          <leafValues>
            1.3943760097026825e-01 -9.1717553138732910e-01</leafValues></_>
        <_>
          <internalNodes>
            0 -1 20 -2.4025059246923774e-04</internalNodes>
          <leafValues>
            2.3237207531929016e-01 -4.5740717649459839e-01</leafValues></_></weakClassifiers></_></stages>
  <features>
    <_>
      <rects>
        <_>
          0 0 32 25 -1.</_>
        <_>
          16 0 16 25 2.</_></rects>
      <tilted>0</tilted></_>
    <_>
      <rects>
        <_>
          0 0 26 4 -1.</_>
        <_>
          0 2 26 2 2.</_></rects>
      <tilted>0</tilted></_>
    <_>
      <rects>
        <_>
          0 1 16 28 -1.</_>
        <_>
          8 1 8 28 2.</_></rects>
      <tilted>0</tilted></_>
    <_>
      <rects>
        <_>
          0 3 12 23 -1.</_>
        <_>
          6 3 6 23 2.</_></rects>
      <tilted>0</tilted></_>
    <_>
      <rects>
        <_>
          0 5 1 26 -1.</_>
        <_>
          0 18 1 13 2.</_></rects>
      <tilted>0</tilted></_>
    <_>
      <rects>
        <_>
          0 6 16 26 -1.</_>
        <_>
          8 6 8 26 2.</_></rects>
      <tilted>0</tilted></_>
    <_>
      <rects>
        <_>
          0 8 2 18 -1.</_>
        <_>
          0 17 2 9 2.</_></rects>
      <tilted>0</tilted></_>
    <_>
      <rects>
        <_>
          0 8 30 16 -1.</_>
        <_>
          10 8 10 16 3.</_></rects>
      <tilted>0</tilted></_>
    <_>
      <rects>
        <_>
          0 14 4 8 -1.</_>
        <_>
          0 14 2 4 2.</_>
        <_>
          2 18 2 4 2.</_></rects>
      <tilted>0</tilted></_>
    <_>
      <rects>
        <_>
          0 15 18 11 -1.</_>
        <_>
          6 15 6 11 3.</_></rects>
      <tilted>0</tilted></_>
    <_>
      <rects>
        <_>
          0 19 2 4 -1.</_>
        <_>
          1 19 1 4 2.</_></rects>
      <tilted>0</tilted></_>
    <_>
      <rects>
        <_>
          0 23 1 6 -1.</_>
        <_>
          0 26 1 3 2.</_></rects>
      <tilted>0</tilted></_>
    <_>
      <rects>
        <_>
          0 31 32 1 -1.</_>
        <_>
          16 31 16 1 2.</_></rects>
      <tilted>0</tilted></_>
    <_>
      <rects>
        <_>
          1 23 1 6 -1.</_>
        <_>
          1 26 1 3 2.</_></rects>
      <tilted>0</tilted></_>
    <_>
      <rects>
        <_>
          1 28 16 3 -1.</_>
        <_>
          9 28 8 3 2.</_></rects>
      <tilted>0</tilted></_>
    <_>
      <rects>
        <_>
          1 28 24 4 -1.</_>
        <_>
          1 30 24 2 2.</_></rects>
      <tilted>0</tilted></_>
    <_>
      <rects>
        <_>
          2 21 9 2 -1.</_>
        <_>
          2 22 9 1 2.</_></rects>
      <tilted>0</tilted></_>
    <_>
      <rects>
        <_>
          2 31 30 1 -1.</_>
        <_>
          17 31 15 1 2.</_></rects>
      <tilted>0</tilted></_>
    <_>
      <rects>
        <_>
          3 0 10 27 -1.</_>
        <_>
          8 0 5 27 2.</_></rects>
      <tilted>0</tilted></_>
    <_>
      <rects>
        <_>
          4 0 7 4 -1.</_>
        <_>
          4 2 7 2 2.</_></rects>
      <tilted>0</tilted></_>
    <_>
      <rects>
        <_>
          5 7 11 6 -1.</_>
        <_>
          5 9 11 2 3.</_></rects>
      <tilted>0</tilted></_>
    <_>
      <rects>
        <_>
          6 2 26 26 -1.</_>
        <_>
          19 2 13 26 2.</_></rects>
      <tilted>0</tilted></_>
    <_>
      <rects>
        <_>
          6 8 26 13 -1.</_>
        <_>
          19 8 13 13 2.</_></rects>
      <tilted>0</tilted></_>
    <_>
      <rects>
        <_>
          6 24 21 8 -1.</_>
        <_>
          6 28 21 4 2.</_></rects>
      <tilted>0</tilted></_>
    <_>
      <rects>
        <_>
          9 0 16 6 -1.</_>
        <_>
          9 3 16 3 2.</_></rects>
      <tilted>0</tilted></_>
    <_>
      <rects>
        <_>
          9 0 18 6 -1.</_>
        <_>
          9 2 18 2 3.</_></rects>
      <tilted>0</tilted></_>
    <_>
      <rects>
        <_>
          9 29 3 3 -1.</_>
        <_>
          9 30 3 1 3.</_></rects>
      <tilted>0</tilted></_>
    <_>
      <rects>
        <_>
          10 29 21 3 -1.</_>
        <_>
          10 30 21 1 3.</_></rects>
      <tilted>0</tilted></_>
    <_>
      <rects>
        <_>
          11 0 14 6 -1.</_>
        <_>
          11 2 14 2 3.</_></rects>
      <tilted>0</tilted></_>
    <_>
      <rects>
        <_>
          11 7 5 2 -1.</_>
        <_>
          11 8 5 1 2.</_></rects>
      <tilted>0</tilted></_>
    <_>
      <rects>
        <_>
          11 25 18 4 -1.</_>
        <_>
          17 25 6 4 3.</_></rects>
      <tilted>0</tilted></_>
    <_>
      <rects>
        <_>
          11 26 16 6 -1.</_>
        <_>
          11 28 16 2 3.</_></rects>
      <tilted>0</tilted></_>
    <_>
      <rects>
        <_>
          12 0 9 8 -1.</_>
        <_>
          12 4 9 4 2.</_></rects>
      <tilted>0</tilted></_>
    <_>
      <rects>
        <_>
          12 13 4 4 -1.</_>
        <_>
          12 13 2 2 2.</_>
        <_>
          14 15 2 2 2.</_></rects>
      <tilted>0</tilted></_>
    <_>
      <rects>
        <_>
          12 18 1 12 -1.</_>
        <_>
          12 24 1 6 2.</_></rects>
      <tilted>0</tilted></_>
    <_>
      <rects>
        <_>
          12 29 10 3 -1.</_>
        <_>
          12 30 10 1 3.</_></rects>
      <tilted>0</tilted></_>
    <_>
      <rects>
        <_>
          14 0 4 3 -1.</_>
        <_>
          14 1 4 1 3.</_></rects>
      <tilted>0</tilted></_>
    <_>
      <rects>
        <_>
          14 17 2 4 -1.</_>
        <_>
          14 17 1 2 2.</_>
        <_>
          15 19 1 2 2.</_></rects>
      <tilted>0</tilted></_>
    <_>
      <rects>
        <_>
          15 25 1 3 -1.</_>
        <_>
          15 26 1 1 3.</_></rects>
      <tilted>0</tilted></_>
    <_>
      <rects>
        <_>
          16 0 16 30 -1.</_>
        <_>
          24 0 8 30 2.</_></rects>
      <tilted>0</tilted></_>
    <_>
      <rects>
        <_>
          16 21 5 2 -1.</_>
        <_>
          16 22 5 1 2.</_></rects>
      <tilted>0</tilted></_>
    <_>
      <rects>
        <_>
          17 0 1 4 -1.</_>
        <_>
          17 2 1 2 2.</_></rects>
      <tilted>0</tilted></_>
    <_>
      <rects>
        <_>
          17 2 8 6 -1.</_>
        <_>
          17 2 4 3 2.</_>
        <_>
          21 5 4 3 2.</_></rects>
      <tilted>0</tilted></_>
    <_>
      <rects>
        <_>
          17 10 2 8 -1.</_>
        <_>
          18 10 1 8 2.</_></rects>
      <tilted>0</tilted></_>
    <_>
      <rects>
        <_>
          17 18 2 2 -1.</_>
        <_>
          17 18 1 1 2.</_>
        <_>
          18 19 1 1 2.</_></rects>
      <tilted>0</tilted></_>
    <_>
      <rects>
        <_>
          17 21 15 2 -1.</_>
        <_>
          22 21 5 2 3.</_></rects>
      <tilted>0</tilted></_>
    <_>
      <rects>
        <_>
          17 27 2 2 -1.</_>
        <_>
          17 28 2 1 2.</_></rects>
      <tilted>0</tilted></_>
    <_>
      <rects>
        <_>
          18 0 3 2 -1.</_>
        <_>
          18 1 3 1 2.</_></rects>
      <tilted>0</tilted></_>
    <_>
      <rects>
        <_>
          18 1 12 27 -1.</_>
        <_>
          24 1 6 27 2.</_></rects>
      <tilted>0</tilted></_>
    <_>
      <rects>
        <_>
          18 1 14 31 -1.</_>
        <_>
          25 1 7 31 2.</_></rects>
      <tilted>0</tilted></_>
    <_>
      <rects>
        <_>
          18 2 12 25 -1.</_>
        <_>
          24 2 6 25 2.</_></rects>
      <tilted>0</tilted></_>
    <_>
      <rects>
        <_>
          18 4 12 2 -1.</_>
        <_>
          18 4 6 1 2.</_>
        <_>
          24 5 6 1 2.</_></rects>
      <tilted>0</tilted></_>
    <_>
      <rects>
        <_>
          19 19 6 12 -1.</_>
        <_>
          19 19 3 6 2.</_>
        <_>
          22 25 3 6 2.</_></rects>
      <tilted>0</tilted></_>
    <_>
      <rects>
        <_>
          20 1 12 22 -1.</_>
        <_>
          26 1 6 22 2.</_></rects>
      <tilted>0</tilted></_>
    <_>
      <rects>
        <_>
          20 6 12 12 -1.</_>
        <_>
          26 6 6 12 2.</_></rects>
      <tilted>0</tilted></_>
    <_>
      <rects>
        <_>
          20 8 12 13 -1.</_>
        <_>
          26 8 6 13 2.</_></rects>
      <tilted>0</tilted></_>
    <_>
      <rects>
        <_>
          20 30 6 2 -1.</_>
        <_>
          22 30 2 2 3.</_></rects>
      <tilted>0</tilted></_>
    <_>
      <rects>
        <_>
          21 8 1 6 -1.</_>
        <_>
          21 10 1 2 3.</_></rects>
      <tilted>0</tilted></_>
    <_>
      <rects>
        <_>
          22 9 2 2 -1.</_>
        <_>
          22 9 1 1 2.</_>
        <_>
          23 10 1 1 2.</_></rects>
      <tilted>0</tilted></_>
    <_>
      <rects>
        <_>
          30 1 2 18 -1.</_>
        <_>
          30 10 2 9 2.</_></rects>
      <tilted>0</tilted></_>
    <_>
      <rects>
        <_>
          30 3 2 9 -1.</_>
        <_>
          31 3 1 9 2.</_></rects>
      <tilted>0</tilted></_>
    <_>
      <rects>
        <_>
          31 3 1 22 -1.</_>
        <_>
          31 14 1 11 2.</_></rects>
      <tilted>0</tilted></_>
    <_>
      <rects>
        <_>
          31 5 1 21 -1.</_>
        <_>
          31 12 1 7 3.</_></rects>
      <tilted>0</tilted></_>
    <_>
      <rects>
        <_>
          31 5 1 27 -1.</_>
        <_>
          31 14 1 9 3.</_></rects>
      <tilted>0</tilted></_>
    <_>
      <rects>
        <_>
          31 14 1 12 -1.</_>
        <_>
          31 18 1 4 3.</_></rects>
      <tilted>0</tilted></_>
    <_>
      <rects>
        <_>
          31 15 1 6 -1.</_>
        <_>
          31 18 1 3 2.</_></rects>
      <tilted>0</tilted></_>
    <_>
      <rects>
        <_>
          31 18 1 9 -1.</_>
        <_>
          31 21 1 3 3.</_></rects>
      <tilted>0</tilted></_>
    <_>
      <rects>
        <_>
          31 20 1 6 -1.</_>
        <_>
          31 22 1 2 3.</_></rects>
      <tilted>0</tilted></_></features></cascade>
</opencv_storage>
