<?xml version="1.0"?>
<opencv_storage>
<cascade>
  <stageType>BOOST</stageType>
  <featureType>HAAR</featureType>
  <height>30</height>
  <width>30</width>
  <stageParams>
    <boostType>GAB</boostType>
    <minHitRate>9.9500000476837158e-01</minHitRate>
    <maxFalseAlarm>5.0000000000000000e-01</maxFalseAlarm>
    <weightTrimRate>9.4999998807907104e-01</weightTrimRate>
    <maxDepth>1</maxDepth>
    <maxWeakCount>100</maxWeakCount></stageParams>
  <featureParams>
    <maxCatCount>0</maxCatCount>
    <featSize>1</featSize>
    <mode>BASIC</mode></featureParams>
  <stageNum>17</stageNum>
  <stages>
    <!-- stage 0 -->
    <_>
      <maxWeakCount>6</maxWeakCount>
      <stageThreshold>-1.8095272779464722e+00</stageThreshold>
      <weakClassifiers>
        <_>
          <internalNodes>
            0 -1 91 -7.5059970840811729e-03</internalNodes>
          <leafValues>
            4.4186046719551086e-01 -7.9907834529876709e-01</leafValues></_>
        <_>
          <internalNodes>
            0 -1 1 -4.5273962314240634e-05</internalNodes>
          <leafValues>
            -9.1834592819213867e-01 1.0005464404821396e-01</leafValues></_>
        <_>
          <internalNodes>
            0 -1 22 -5.4092619393486530e-05</internalNodes>
          <leafValues>
            -8.3432918787002563e-01 2.3527218401432037e-01</leafValues></_>
        <_>
          <internalNodes>
            0 -1 19 9.5676485216245055e-05</internalNodes>
          <leafValues>
            3.8378503918647766e-01 -7.2471922636032104e-01</leafValues></_>
        <_>
          <internalNodes>
            0 -1 52 -1.4007743629917968e-05</internalNodes>
          <leafValues>
            -8.2558691501617432e-01 2.2924947738647461e-01</leafValues></_>
        <_>
          <internalNodes>
            0 -1 137 -3.4727796446532011e-04</internalNodes>
          <leafValues>
            -8.5775917768478394e-01 2.0453040301799774e-01</leafValues></_></weakClassifiers></_>
    <!-- stage 1 -->
    <_>
      <maxWeakCount>9</maxWeakCount>
      <stageThreshold>-1.6394376754760742e+00</stageThreshold>
      <weakClassifiers>
        <_>
          <internalNodes>
            0 -1 71 6.0826338827610016e-02</internalNodes>
          <leafValues>
            -7.9329103231430054e-01 6.7647057771682739e-01</leafValues></_>
        <_>
          <internalNodes>
            0 -1 63 2.7867522090673447e-02</internalNodes>
          <leafValues>
            -5.0608360767364502e-01 6.7900276184082031e-01</leafValues></_>
        <_>
          <internalNodes>
            0 -1 77 -7.6695862226188183e-03</internalNodes>
          <leafValues>
            7.4022150039672852e-01 -2.4600300192832947e-01</leafValues></_>
        <_>
          <internalNodes>
            0 -1 8 1.0589645244181156e-03</internalNodes>
          <leafValues>
            2.6391884684562683e-01 -7.5837832689285278e-01</leafValues></_>
        <_>
          <internalNodes>
            0 -1 89 1.3095638714730740e-03</internalNodes>
          <leafValues>
            -4.6619579195976257e-01 4.0619733929634094e-01</leafValues></_>
        <_>
          <internalNodes>
            0 -1 13 -1.2920788140036166e-04</internalNodes>
          <leafValues>
            -8.2713127136230469e-01 2.4976429343223572e-01</leafValues></_>
        <_>
          <internalNodes>
            0 -1 107 6.8429494276642799e-03</internalNodes>
          <leafValues>
            -2.3719470202922821e-01 8.1900656223297119e-01</leafValues></_>
        <_>
          <internalNodes>
            0 -1 87 -2.3789215832948685e-02</internalNodes>
          <leafValues>
            5.3987747430801392e-01 -3.3148810267448425e-01</leafValues></_>
        <_>
          <internalNodes>
            0 -1 76 -2.9432412236928940e-02</internalNodes>
          <leafValues>
            7.3600363731384277e-01 -2.3972767591476440e-01</leafValues></_></weakClassifiers></_>
    <!-- stage 2 -->
    <_>
      <maxWeakCount>6</maxWeakCount>
      <stageThreshold>-1.6246055364608765e+00</stageThreshold>
      <weakClassifiers>
        <_>
          <internalNodes>
            0 -1 81 2.5356221944093704e-02</internalNodes>
          <leafValues>
            -7.7341657876968384e-01 7.5999999046325684e-01</leafValues></_>
        <_>
          <internalNodes>
            0 -1 127 9.6415242296643555e-05</internalNodes>
          <leafValues>
            5.3783535957336426e-02 -9.0429818630218506e-01</leafValues></_>
        <_>
          <internalNodes>
            0 -1 9 -1.8436047248542309e-03</internalNodes>
          <leafValues>
            -9.3658459186553955e-01 1.7520809173583984e-01</leafValues></_>
        <_>
          <internalNodes>
            0 -1 144 1.0660224506864324e-04</internalNodes>
          <leafValues>
            2.2545626759529114e-01 -7.3485076427459717e-01</leafValues></_>
        <_>
          <internalNodes>
            0 -1 142 -1.2927759962622076e-04</internalNodes>
          <leafValues>
            -6.9107693433761597e-01 2.9005143046379089e-01</leafValues></_>
        <_>
          <internalNodes>
            0 -1 79 8.9540448971092701e-04</internalNodes>
          <leafValues>
            -4.0784651041030884e-01 4.9723285436630249e-01</leafValues></_></weakClassifiers></_>
    <!-- stage 3 -->
    <_>
      <maxWeakCount>7</maxWeakCount>
      <stageThreshold>-1.8215762376785278e+00</stageThreshold>
      <weakClassifiers>
        <_>
          <internalNodes>
            0 -1 85 8.6889669299125671e-02</internalNodes>
          <leafValues>
            -7.6752442121505737e-01 8.1818181276321411e-01</leafValues></_>
        <_>
          <internalNodes>
            0 -1 6 -2.6481568813323975e-01</internalNodes>
          <leafValues>
            8.3204072713851929e-01 -4.3715262413024902e-01</leafValues></_>
        <_>
          <internalNodes>
            0 -1 4 -1.8455466628074646e-01</internalNodes>
          <leafValues>
            -8.5989224910736084e-01 2.9167243838310242e-01</leafValues></_>
        <_>
          <internalNodes>
            0 -1 59 1.2104081688448787e-03</internalNodes>
          <leafValues>
            2.7124518156051636e-01 -8.4053951501846313e-01</leafValues></_>
        <_>
          <internalNodes>
            0 -1 2 1.5346033032983541e-03</internalNodes>
          <leafValues>
            2.0511759817600250e-01 -8.4882998466491699e-01</leafValues></_>
        <_>
          <internalNodes>
            0 -1 2 -4.2129061184823513e-03</internalNodes>
          <leafValues>
            -8.1744819879531860e-01 3.0746293067932129e-01</leafValues></_>
        <_>
          <internalNodes>
            0 -1 109 -1.2552741100080311e-04</internalNodes>
          <leafValues>
            5.8407843112945557e-01 -4.0167704224586487e-01</leafValues></_></weakClassifiers></_>
    <!-- stage 4 -->
    <_>
      <maxWeakCount>8</maxWeakCount>
      <stageThreshold>-1.6280217170715332e+00</stageThreshold>
      <weakClassifiers>
        <_>
          <internalNodes>
            0 -1 55 -3.2312661409378052e-01</internalNodes>
          <leafValues>
            1. -7.5592625141143799e-01</leafValues></_>
        <_>
          <internalNodes>
            0 -1 93 4.2809089645743370e-03</internalNodes>
          <leafValues>
            -4.1962099075317383e-01 6.7872786521911621e-01</leafValues></_>
        <_>
          <internalNodes>
            0 -1 121 -5.7524390285834670e-05</internalNodes>
          <leafValues>
            5.0521653890609741e-01 -3.2440209388732910e-01</leafValues></_>
        <_>
          <internalNodes>
            0 -1 28 -1.4168753987178206e-03</internalNodes>
          <leafValues>
            -7.5486093759536743e-01 2.1533790230751038e-01</leafValues></_>
        <_>
          <internalNodes>
            0 -1 126 -4.6821136493235826e-05</internalNodes>
          <leafValues>
            4.3388369679450989e-01 -3.5908478498458862e-01</leafValues></_>
        <_>
          <internalNodes>
            0 -1 149 5.5203650845214725e-05</internalNodes>
          <leafValues>
            1.7126069962978363e-01 -7.9105311632156372e-01</leafValues></_>
        <_>
          <internalNodes>
            0 -1 100 -8.4333063568919897e-05</internalNodes>
          <leafValues>
            4.6155679225921631e-01 -3.4890377521514893e-01</leafValues></_>
        <_>
          <internalNodes>
            0 -1 148 -4.2287632822990417e-03</internalNodes>
          <leafValues>
            -9.2905992269515991e-01 1.9331762194633484e-01</leafValues></_></weakClassifiers></_>
    <!-- stage 5 -->
    <_>
      <maxWeakCount>9</maxWeakCount>
      <stageThreshold>-1.5163575410842896e+00</stageThreshold>
      <weakClassifiers>
        <_>
          <internalNodes>
            0 -1 84 1.6607506573200226e-01</internalNodes>
          <leafValues>
            -7.5284838676452637e-01 1.</leafValues></_>
        <_>
          <internalNodes>
            0 -1 80 -1.7744437791407108e-03</internalNodes>
          <leafValues>
            3.1551188230514526e-01 -5.1521486043930054e-01</leafValues></_>
        <_>
          <internalNodes>
            0 -1 80 2.5359852588735521e-04</internalNodes>
          <leafValues>
            -3.2538112998008728e-01 5.0595211982727051e-01</leafValues></_>
        <_>
          <internalNodes>
            0 -1 29 2.5605309009552002e-01</internalNodes>
          <leafValues>
            1.7612156271934509e-01 -9.1192042827606201e-01</leafValues></_>
        <_>
          <internalNodes>
            0 -1 110 -1.6542133380426094e-05</internalNodes>
          <leafValues>
            5.0707107782363892e-01 -2.9905229806900024e-01</leafValues></_>
        <_>
          <internalNodes>
            0 -1 110 2.8412399842636660e-05</internalNodes>
          <leafValues>
            -2.7802005410194397e-01 5.1087963581085205e-01</leafValues></_>
        <_>
          <internalNodes>
            0 -1 24 3.4673850983381271e-02</internalNodes>
          <leafValues>
            -2.3914316296577454e-01 5.7042771577835083e-01</leafValues></_>
        <_>
          <internalNodes>
            0 -1 30 2.0382612943649292e-01</internalNodes>
          <leafValues>
            1.7365621030330658e-01 -9.2737120389938354e-01</leafValues></_>
        <_>
          <internalNodes>
            0 -1 121 2.4370050232391804e-04</internalNodes>
          <leafValues>
            -2.6604631543159485e-01 5.5000513792037964e-01</leafValues></_></weakClassifiers></_>
    <!-- stage 6 -->
    <_>
      <maxWeakCount>6</maxWeakCount>
      <stageThreshold>-2.0248949527740479e+00</stageThreshold>
      <weakClassifiers>
        <_>
          <internalNodes>
            0 -1 83 1.3829433917999268e-01</internalNodes>
          <leafValues>
            -7.5571179389953613e-01 9.3939393758773804e-01</leafValues></_>
        <_>
          <internalNodes>
            0 -1 37 5.7499714195728302e-02</internalNodes>
          <leafValues>
            -4.6150636672973633e-01 5.1628255844116211e-01</leafValues></_>
        <_>
          <internalNodes>
            0 -1 145 -6.5692338466760702e-06</internalNodes>
          <leafValues>
            -9.0073674917221069e-01 2.5116220116615295e-01</leafValues></_>
        <_>
          <internalNodes>
            0 -1 13 7.4593466706573963e-04</internalNodes>
          <leafValues>
            1.7087315022945404e-01 -8.8930821418762207e-01</leafValues></_>
        <_>
          <internalNodes>
            0 -1 35 -7.5704542723542545e-06</internalNodes>
          <leafValues>
            -6.9113612174987793e-01 2.4226614832878113e-01</leafValues></_>
        <_>
          <internalNodes>
            0 -1 34 1.5150702893151902e-05</internalNodes>
          <leafValues>
            3.5754215717315674e-01 -5.3857612609863281e-01</leafValues></_></weakClassifiers></_>
    <!-- stage 7 -->
    <_>
      <maxWeakCount>7</maxWeakCount>
      <stageThreshold>-1.5717233419418335e+00</stageThreshold>
      <weakClassifiers>
        <_>
          <internalNodes>
            0 -1 5 -2.4241119623184204e-01</internalNodes>
          <leafValues>
            8.2857143878936768e-01 -7.5528168678283691e-01</leafValues></_>
        <_>
          <internalNodes>
            0 -1 15 2.3041275198920630e-05</internalNodes>
          <leafValues>
            7.2321631014347076e-02 -7.7112764120101929e-01</leafValues></_>
        <_>
          <internalNodes>
            0 -1 14 -6.2993049141368829e-06</internalNodes>
          <leafValues>
            -6.4994996786117554e-01 2.3636245727539063e-01</leafValues></_>
        <_>
          <internalNodes>
            0 -1 27 -5.1070346671622247e-05</internalNodes>
          <leafValues>
            -7.5762033462524414e-01 2.2891961038112640e-01</leafValues></_>
        <_>
          <internalNodes>
            0 -1 18 -7.5388074037618935e-05</internalNodes>
          <leafValues>
            -6.4660429954528809e-01 2.0599174499511719e-01</leafValues></_>
        <_>
          <internalNodes>
            0 -1 131 -1.2395335361361504e-03</internalNodes>
          <leafValues>
            -6.8181300163269043e-01 2.0037953555583954e-01</leafValues></_>
        <_>
          <internalNodes>
            0 -1 130 2.4569788947701454e-03</internalNodes>
          <leafValues>
            1.3567316532135010e-01 -8.7410426139831543e-01</leafValues></_></weakClassifiers></_>
    <!-- stage 8 -->
    <_>
      <maxWeakCount>7</maxWeakCount>
      <stageThreshold>-2.0205695629119873e+00</stageThreshold>
      <weakClassifiers>
        <_>
          <internalNodes>
            0 -1 72 1.2056226283311844e-01</internalNodes>
          <leafValues>
            -7.6190477609634399e-01 9.4594591856002808e-01</leafValues></_>
        <_>
          <internalNodes>
            0 -1 44 8.6681917309761047e-02</internalNodes>
          <leafValues>
            -4.8177641630172729e-01 5.0736296176910400e-01</leafValues></_>
        <_>
          <internalNodes>
            0 -1 146 2.1941585873719305e-04</internalNodes>
          <leafValues>
            2.2274813055992126e-01 -8.5665011405944824e-01</leafValues></_>
        <_>
          <internalNodes>
            0 -1 60 7.0853675424586982e-06</internalNodes>
          <leafValues>
            1.9309458136558533e-01 -6.6087889671325684e-01</leafValues></_>
        <_>
          <internalNodes>
            0 -1 140 6.2290614550875034e-06</internalNodes>
          <leafValues>
            1.9626966118812561e-01 -7.3012316226959229e-01</leafValues></_>
        <_>
          <internalNodes>
            0 -1 12 -2.2204071283340454e-03</internalNodes>
          <leafValues>
            -1. 1.2626969814300537e-01</leafValues></_>
        <_>
          <internalNodes>
            0 -1 48 -8.1433363448013552e-06</internalNodes>
          <leafValues>
            -6.6129702329635620e-01 1.5865948796272278e-01</leafValues></_></weakClassifiers></_>
    <!-- stage 9 -->
    <_>
      <maxWeakCount>8</maxWeakCount>
      <stageThreshold>-1.3484811782836914e+00</stageThreshold>
      <weakClassifiers>
        <_>
          <internalNodes>
            0 -1 86 -6.9689199328422546e-02</internalNodes>
          <leafValues>
            1. -7.4367916584014893e-01</leafValues></_>
        <_>
          <internalNodes>
            0 -1 110 -4.0421233279630542e-05</internalNodes>
          <leafValues>
            3.9723837375640869e-01 -4.6717694401741028e-01</leafValues></_>
        <_>
          <internalNodes>
            0 -1 110 2.9332231861189939e-05</internalNodes>
          <leafValues>
            -3.5684266686439514e-01 5.7794731855392456e-01</leafValues></_>
        <_>
          <internalNodes>
            0 -1 73 -4.3553024530410767e-02</internalNodes>
          <leafValues>
            -7.1770429611206055e-01 2.1986947953701019e-01</leafValues></_>
        <_>
          <internalNodes>
            0 -1 2 4.0943282656371593e-03</internalNodes>
          <leafValues>
            1.7124709486961365e-01 -8.8951182365417480e-01</leafValues></_>
        <_>
          <internalNodes>
            0 -1 36 3.1794413924217224e-02</internalNodes>
          <leafValues>
            -2.8963944315910339e-01 4.7863918542861938e-01</leafValues></_>
        <_>
          <internalNodes>
            0 -1 38 -1.0497194528579712e-01</internalNodes>
          <leafValues>
            4.4983568787574768e-01 -2.1531058847904205e-01</leafValues></_>
        <_>
          <internalNodes>
            0 -1 128 -1.3370733358897269e-04</internalNodes>
          <leafValues>
            4.4389620423316956e-01 -2.3888394236564636e-01</leafValues></_></weakClassifiers></_>
    <!-- stage 10 -->
    <_>
      <maxWeakCount>8</maxWeakCount>
      <stageThreshold>-1.3645662069320679e+00</stageThreshold>
      <weakClassifiers>
        <_>
          <internalNodes>
            0 -1 94 6.1647623777389526e-02</internalNodes>
          <leafValues>
            -7.5087720155715942e-01 8.7096774578094482e-01</leafValues></_>
        <_>
          <internalNodes>
            0 -1 43 7.2197474539279938e-02</internalNodes>
          <leafValues>
            -3.8711026310920715e-01 6.0521239042282104e-01</leafValues></_>
        <_>
          <internalNodes>
            0 -1 39 -8.3077229646733031e-06</internalNodes>
          <leafValues>
            -5.3279781341552734e-01 2.2985807061195374e-01</leafValues></_>
        <_>
          <internalNodes>
            0 -1 41 -1.0074032470583916e-03</internalNodes>
          <leafValues>
            -8.1595075130462646e-01 1.1253008246421814e-01</leafValues></_>
        <_>
          <internalNodes>
            0 -1 20 7.5294170528650284e-03</internalNodes>
          <leafValues>
            1.8813595175743103e-01 -5.8527970314025879e-01</leafValues></_>
        <_>
          <internalNodes>
            0 -1 135 4.6618022024631500e-03</internalNodes>
          <leafValues>
            8.6965866386890411e-02 -8.9005798101425171e-01</leafValues></_>
        <_>
          <internalNodes>
            0 -1 11 5.0586257129907608e-03</internalNodes>
          <leafValues>
            6.8660795688629150e-02 -9.7577100992202759e-01</leafValues></_>
        <_>
          <internalNodes>
            0 -1 68 -2.7822032570838928e-03</internalNodes>
          <leafValues>
            -1. 6.4294315874576569e-02</leafValues></_></weakClassifiers></_>
    <!-- stage 11 -->
    <_>
      <maxWeakCount>13</maxWeakCount>
      <stageThreshold>-1.5616706609725952e+00</stageThreshold>
      <weakClassifiers>
        <_>
          <internalNodes>
            0 -1 70 9.5562905073165894e-02</internalNodes>
          <leafValues>
            -7.4064403772354126e-01 1.</leafValues></_>
        <_>
          <internalNodes>
            0 -1 104 1.6313451528549194e-01</internalNodes>
          <leafValues>
            -3.1705883145332336e-01 8.0143225193023682e-01</leafValues></_>
        <_>
          <internalNodes>
            0 -1 44 8.6654230952262878e-02</internalNodes>
          <leafValues>
            -1.7785136401653290e-01 5.8063834905624390e-01</leafValues></_>
        <_>
          <internalNodes>
            0 -1 138 -4.5111328363418579e-03</internalNodes>
          <leafValues>
            -9.4867169857025146e-01 1.0824838280677795e-01</leafValues></_>
        <_>
          <internalNodes>
            0 -1 61 -1.0366228222846985e-01</internalNodes>
          <leafValues>
            -6.6640609502792358e-01 1.3748329877853394e-01</leafValues></_>
        <_>
          <internalNodes>
            0 -1 118 -4.8566114855930209e-04</internalNodes>
          <leafValues>
            4.8233008384704590e-01 -2.1856388449668884e-01</leafValues></_>
        <_>
          <internalNodes>
            0 -1 106 2.3306075483560562e-02</internalNodes>
          <leafValues>
            1.4341248571872711e-01 -8.5297024250030518e-01</leafValues></_>
        <_>
          <internalNodes>
            0 -1 117 3.9209678652696311e-04</internalNodes>
          <leafValues>
            -2.5506696105003357e-01 4.4004908204078674e-01</leafValues></_>
        <_>
          <internalNodes>
            0 -1 147 4.5988457277417183e-03</internalNodes>
          <leafValues>
            1.5486113727092743e-01 -7.1490585803985596e-01</leafValues></_>
        <_>
          <internalNodes>
            0 -1 124 6.2628860177937895e-05</internalNodes>
          <leafValues>
            -2.8986969590187073e-01 2.7080473303794861e-01</leafValues></_>
        <_>
          <internalNodes>
            0 -1 31 3.1646043062210083e-01</internalNodes>
          <leafValues>
            -8.2626312971115112e-02 9.4262522459030151e-01</leafValues></_>
        <_>
          <internalNodes>
            0 -1 26 -8.4755979478359222e-03</internalNodes>
          <leafValues>
            -5.6922888755798340e-01 1.7900170385837555e-01</leafValues></_>
        <_>
          <internalNodes>
            0 -1 132 -1.0555298104009125e-05</internalNodes>
          <leafValues>
            -4.6542158722877502e-01 1.5921047329902649e-01</leafValues></_></weakClassifiers></_>
    <!-- stage 12 -->
    <_>
      <maxWeakCount>13</maxWeakCount>
      <stageThreshold>-1.5787431001663208e+00</stageThreshold>
      <weakClassifiers>
        <_>
          <internalNodes>
            0 -1 112 -1.9834836944937706e-02</internalNodes>
          <leafValues>
            6.5714287757873535e-01 -7.5000000000000000e-01</leafValues></_>
        <_>
          <internalNodes>
            0 -1 99 -1.4457380166277289e-04</internalNodes>
          <leafValues>
            2.1203988790512085e-01 -4.2252162098884583e-01</leafValues></_>
        <_>
          <internalNodes>
            0 -1 7 7.3858737945556641e-02</internalNodes>
          <leafValues>
            -1.8991410732269287e-01 4.2628702521324158e-01</leafValues></_>
        <_>
          <internalNodes>
            0 -1 27 1.6524048987776041e-03</internalNodes>
          <leafValues>
            1.0512249916791916e-01 -7.8839856386184692e-01</leafValues></_>
        <_>
          <internalNodes>
            0 -1 51 3.3246385864913464e-03</internalNodes>
          <leafValues>
            -2.1454621851444244e-01 4.6369776129722595e-01</leafValues></_>
        <_>
          <internalNodes>
            0 -1 10 -1.0729579662438482e-04</internalNodes>
          <leafValues>
            -6.4045023918151855e-01 1.3296613097190857e-01</leafValues></_>
        <_>
          <internalNodes>
            0 -1 67 4.0183342207456008e-05</internalNodes>
          <leafValues>
            -2.3801831901073456e-01 3.6634504795074463e-01</leafValues></_>
        <_>
          <internalNodes>
            0 -1 120 4.7555440687574446e-05</internalNodes>
          <leafValues>
            -2.1772533655166626e-01 3.5238611698150635e-01</leafValues></_>
        <_>
          <internalNodes>
            0 -1 3 -2.4342425167560577e-03</internalNodes>
          <leafValues>
            -8.2044172286987305e-01 1.0639096796512604e-01</leafValues></_>
        <_>
          <internalNodes>
            0 -1 92 2.6629906147718430e-02</internalNodes>
          <leafValues>
            9.7616128623485565e-02 -7.2339946031570435e-01</leafValues></_>
        <_>
          <internalNodes>
            0 -1 122 4.8077003157231957e-05</internalNodes>
          <leafValues>
            -2.8057545423507690e-01 3.1203830242156982e-01</leafValues></_>
        <_>
          <internalNodes>
            0 -1 139 3.8374237192329019e-05</internalNodes>
          <leafValues>
            1.6224247217178345e-01 -5.6563270092010498e-01</leafValues></_>
        <_>
          <internalNodes>
            0 -1 82 5.6481661886209622e-05</internalNodes>
          <leafValues>
            -3.3629223704338074e-01 2.6548117399215698e-01</leafValues></_></weakClassifiers></_>
    <!-- stage 13 -->
    <_>
      <maxWeakCount>13</maxWeakCount>
      <stageThreshold>-1.5947185754776001e+00</stageThreshold>
      <weakClassifiers>
        <_>
          <internalNodes>
            0 -1 64 1.0005013644695282e-01</internalNodes>
          <leafValues>
            -7.3761945962905884e-01 1.</leafValues></_>
        <_>
          <internalNodes>
            0 -1 58 -5.6213460862636566e-02</internalNodes>
          <leafValues>
            5.2076113224029541e-01 -3.3862265944480896e-01</leafValues></_>
        <_>
          <internalNodes>
            0 -1 123 -3.2238517887890339e-03</internalNodes>
          <leafValues>
            3.6818575859069824e-01 -2.5853961706161499e-01</leafValues></_>
        <_>
          <internalNodes>
            0 -1 143 7.3165324465662707e-06</internalNodes>
          <leafValues>
            1.4490956068038940e-01 -6.4363014698028564e-01</leafValues></_>
        <_>
          <internalNodes>
            0 -1 50 -1.5557307749986649e-02</internalNodes>
          <leafValues>
            -7.7239918708801270e-01 1.3220553100109100e-01</leafValues></_>
        <_>
          <internalNodes>
            0 -1 88 -5.4423004388809204e-02</internalNodes>
          <leafValues>
            -8.1420999765396118e-01 7.8454285860061646e-02</leafValues></_>
        <_>
          <internalNodes>
            0 -1 69 -1.1596426367759705e-01</internalNodes>
          <leafValues>
            -8.3203804492950439e-01 8.3034142851829529e-02</leafValues></_>
        <_>
          <internalNodes>
            0 -1 134 -3.2664597965776920e-03</internalNodes>
          <leafValues>
            -1. 5.0216414034366608e-02</leafValues></_>
        <_>
          <internalNodes>
            0 -1 133 -8.9606626715976745e-05</internalNodes>
          <leafValues>
            3.4492784738540649e-01 -2.5342091917991638e-01</leafValues></_>
        <_>
          <internalNodes>
            0 -1 47 3.9006229490041733e-03</internalNodes>
          <leafValues>
            8.8739782571792603e-02 -7.5970745086669922e-01</leafValues></_>
        <_>
          <internalNodes>
            0 -1 49 -7.0677518844604492e-02</internalNodes>
          <leafValues>
            -9.2289006710052490e-01 7.1618154644966125e-02</leafValues></_>
        <_>
          <internalNodes>
            0 -1 108 -6.7690925789065659e-05</internalNodes>
          <leafValues>
            2.7644115686416626e-01 -2.7060624957084656e-01</leafValues></_>
        <_>
          <internalNodes>
            0 -1 45 1.8852543830871582e-01</internalNodes>
          <leafValues>
            -1.1914862692356110e-01 7.2430300712585449e-01</leafValues></_></weakClassifiers></_>
    <!-- stage 14 -->
    <_>
      <maxWeakCount>12</maxWeakCount>
      <stageThreshold>-1.5510467290878296e+00</stageThreshold>
      <weakClassifiers>
        <_>
          <internalNodes>
            0 -1 113 -2.3011378943920135e-02</internalNodes>
          <leafValues>
            9.0476191043853760e-01 -7.3739129304885864e-01</leafValues></_>
        <_>
          <internalNodes>
            0 -1 105 7.9791784286499023e-02</internalNodes>
          <leafValues>
            -2.9770851135253906e-01 7.3924827575683594e-01</leafValues></_>
        <_>
          <internalNodes>
            0 -1 96 -5.2592135034501553e-04</internalNodes>
          <leafValues>
            3.2758414745330811e-01 -2.5441780686378479e-01</leafValues></_>
        <_>
          <internalNodes>
            0 -1 16 3.4285574220120907e-03</internalNodes>
          <leafValues>
            1.1303165555000305e-01 -8.5197514295578003e-01</leafValues></_>
        <_>
          <internalNodes>
            0 -1 129 7.5394250452518463e-03</internalNodes>
          <leafValues>
            1.4991353452205658e-01 -6.9828128814697266e-01</leafValues></_>
        <_>
          <internalNodes>
            0 -1 66 -1.8061863374896348e-04</internalNodes>
          <leafValues>
            3.6366313695907593e-01 -2.3407074809074402e-01</leafValues></_>
        <_>
          <internalNodes>
            0 -1 141 -8.7011227151378989e-05</internalNodes>
          <leafValues>
            -7.4997973442077637e-01 1.1556455492973328e-01</leafValues></_>
        <_>
          <internalNodes>
            0 -1 102 2.5188969448208809e-03</internalNodes>
          <leafValues>
            7.1707889437675476e-02 -8.0731463432312012e-01</leafValues></_>
        <_>
          <internalNodes>
            0 -1 53 -1.2690581570495851e-05</internalNodes>
          <leafValues>
            -6.0203343629837036e-01 1.1131993681192398e-01</leafValues></_>
        <_>
          <internalNodes>
            0 -1 17 -5.3543942049145699e-03</internalNodes>
          <leafValues>
            3.7341073155403137e-01 -2.3417530953884125e-01</leafValues></_>
        <_>
          <internalNodes>
            0 -1 21 1.3647892046719790e-03</internalNodes>
          <leafValues>
            -2.9390573501586914e-01 3.2360664010047913e-01</leafValues></_>
        <_>
          <internalNodes>
            0 -1 65 4.8590423539280891e-03</internalNodes>
          <leafValues>
            1.1651677638292313e-01 -6.6850090026855469e-01</leafValues></_></weakClassifiers></_>
    <!-- stage 15 -->
    <_>
      <maxWeakCount>12</maxWeakCount>
      <stageThreshold>-1.5194053649902344e+00</stageThreshold>
      <weakClassifiers>
        <_>
          <internalNodes>
            0 -1 95 3.8114216178655624e-02</internalNodes>
          <leafValues>
            -7.3437500000000000e-01 8.9473682641983032e-01</leafValues></_>
        <_>
          <internalNodes>
            0 -1 23 -1.4367878437042236e-01</internalNodes>
          <leafValues>
            5.7656353712081909e-01 -3.0869010090827942e-01</leafValues></_>
        <_>
          <internalNodes>
            0 -1 114 -3.9826005697250366e-02</internalNodes>
          <leafValues>
            4.5774415135383606e-01 -2.4154163897037506e-01</leafValues></_>
        <_>
          <internalNodes>
            0 -1 46 -2.0973484963178635e-02</internalNodes>
          <leafValues>
            3.5345602035522461e-01 -2.0234952867031097e-01</leafValues></_>
        <_>
          <internalNodes>
            0 -1 116 7.4400435551069677e-05</internalNodes>
          <leafValues>
            -2.5212791562080383e-01 2.6254627108573914e-01</leafValues></_>
        <_>
          <internalNodes>
            0 -1 0 -2.6516502257436514e-03</internalNodes>
          <leafValues>
            -6.2474709749221802e-01 1.0646682232618332e-01</leafValues></_>
        <_>
          <internalNodes>
            0 -1 98 1.5936921408865601e-04</internalNodes>
          <leafValues>
            -2.4812126159667969e-01 2.6066449284553528e-01</leafValues></_>
        <_>
          <internalNodes>
            0 -1 33 -1.1710099875926971e-02</internalNodes>
          <leafValues>
            -5.2159577608108521e-01 1.2855188548564911e-01</leafValues></_>
        <_>
          <internalNodes>
            0 -1 57 3.5546990111470222e-03</internalNodes>
          <leafValues>
            -2.4830326437950134e-01 3.1546413898468018e-01</leafValues></_>
        <_>
          <internalNodes>
            0 -1 101 -2.2110436111688614e-03</internalNodes>
          <leafValues>
            3.8956725597381592e-01 -2.3111176490783691e-01</leafValues></_>
        <_>
          <internalNodes>
            0 -1 32 8.0638244748115540e-02</internalNodes>
          <leafValues>
            -7.3332972824573517e-02 7.3669666051864624e-01</leafValues></_>
        <_>
          <internalNodes>
            0 -1 42 7.2291744872927666e-03</internalNodes>
          <leafValues>
            8.6243562400341034e-02 -8.2045257091522217e-01</leafValues></_></weakClassifiers></_>
    <!-- stage 16 -->
    <_>
      <maxWeakCount>16</maxWeakCount>
      <stageThreshold>-1.4889502525329590e+00</stageThreshold>
      <weakClassifiers>
        <_>
          <internalNodes>
            0 -1 97 -2.4851247668266296e-02</internalNodes>
          <leafValues>
            4.8571428656578064e-01 -7.4471831321716309e-01</leafValues></_>
        <_>
          <internalNodes>
            0 -1 62 1.4321944117546082e-01</internalNodes>
          <leafValues>
            -2.9287865757942200e-01 5.2664524316787720e-01</leafValues></_>
        <_>
          <internalNodes>
            0 -1 136 1.0072131772176363e-05</internalNodes>
          <leafValues>
            1.7771857976913452e-01 -4.1578701138496399e-01</leafValues></_>
        <_>
          <internalNodes>
            0 -1 54 1.1359450872987509e-03</internalNodes>
          <leafValues>
            7.4598670005798340e-02 -7.1740752458572388e-01</leafValues></_>
        <_>
          <internalNodes>
            0 -1 90 -2.5963131338357925e-02</internalNodes>
          <leafValues>
            -9.6760833263397217e-01 8.5740305483341217e-02</leafValues></_>
        <_>
          <internalNodes>
            0 -1 74 -7.0573374629020691e-02</internalNodes>
          <leafValues>
            -7.5569176673889160e-01 5.1427524536848068e-02</leafValues></_>
        <_>
          <internalNodes>
            0 -1 103 -1.6496492549777031e-02</internalNodes>
          <leafValues>
            6.2599188089370728e-01 -1.1857352405786514e-01</leafValues></_>
        <_>
          <internalNodes>
            0 -1 78 3.8844897062517703e-05</internalNodes>
          <leafValues>
            -2.8988176584243774e-01 2.6480013132095337e-01</leafValues></_>
        <_>
          <internalNodes>
            0 -1 56 -1.3789419317618012e-03</internalNodes>
          <leafValues>
            -6.4736956357955933e-01 1.0624741017818451e-01</leafValues></_>
        <_>
          <internalNodes>
            0 -1 115 -1.7906622961163521e-03</internalNodes>
          <leafValues>
            -4.0854433178901672e-01 1.4230976998806000e-01</leafValues></_>
        <_>
          <internalNodes>
            0 -1 40 1.4869715087115765e-03</internalNodes>
          <leafValues>
            -1.5218529105186462e-01 4.6074762940406799e-01</leafValues></_>
        <_>
          <internalNodes>
            0 -1 125 8.6527233943343163e-03</internalNodes>
          <leafValues>
            1.0386148840188980e-01 -6.0752308368682861e-01</leafValues></_>
        <_>
          <internalNodes>
            0 -1 119 6.4080732408910990e-04</internalNodes>
          <leafValues>
            -2.5798970460891724e-01 2.5882476568222046e-01</leafValues></_>
        <_>
          <internalNodes>
            0 -1 111 -2.4315449409186840e-03</internalNodes>
          <leafValues>
            4.4239327311515808e-01 -1.9795627892017365e-01</leafValues></_>
        <_>
          <internalNodes>
            0 -1 25 1.0740180313587189e-01</internalNodes>
          <leafValues>
            -1.5919849276542664e-01 4.4063699245452881e-01</leafValues></_>
        <_>
          <internalNodes>
            0 -1 75 -4.3621816439554095e-04</internalNodes>
          <leafValues>
            2.9651594161987305e-01 -3.0556905269622803e-01</leafValues></_></weakClassifiers></_></stages>
  <features>
    <_>
      <rects>
        <_>
          0 0 1 30 -1.</_>
        <_>
          0 15 1 15 2.</_></rects>
      <tilted>0</tilted></_>
    <_>
      <rects>
        <_>
          0 0 8 1 -1.</_>
        <_>
          4 0 4 1 2.</_></rects>
      <tilted>0</tilted></_>
    <_>
      <rects>
        <_>
          0 0 30 1 -1.</_>
        <_>
          15 0 15 1 2.</_></rects>
      <tilted>0</tilted></_>
    <_>
      <rects>
        <_>
          0 2 2 12 -1.</_>
        <_>
          0 6 2 4 3.</_></rects>
      <tilted>0</tilted></_>
    <_>
      <rects>
        <_>
          0 2 30 28 -1.</_>
        <_>
          15 2 15 28 2.</_></rects>
      <tilted>0</tilted></_>
    <_>
      <rects>
        <_>
          0 3 27 7 -1.</_>
        <_>
          9 3 9 7 3.</_></rects>
      <tilted>0</tilted></_>
    <_>
      <rects>
        <_>
          0 3 27 18 -1.</_>
        <_>
          9 3 9 18 3.</_></rects>
      <tilted>0</tilted></_>
    <_>
      <rects>
        <_>
          0 3 20 12 -1.</_>
        <_>
          10 3 10 12 2.</_></rects>
      <tilted>0</tilted></_>
    <_>
      <rects>
        <_>
          0 6 1 21 -1.</_>
        <_>
          0 13 1 7 3.</_></rects>
      <tilted>0</tilted></_>
    <_>
      <rects>
        <_>
          0 6 1 18 -1.</_>
        <_>
          0 15 1 9 2.</_></rects>
      <tilted>0</tilted></_>
    <_>
      <rects>
        <_>
          0 6 6 5 -1.</_>
        <_>
          3 6 3 5 2.</_></rects>
      <tilted>0</tilted></_>
    <_>
      <rects>
        <_>
          0 10 2 10 -1.</_>
        <_>
          0 15 2 5 2.</_></rects>
      <tilted>0</tilted></_>
    <_>
      <rects>
        <_>
          0 12 1 12 -1.</_>
        <_>
          0 16 1 4 3.</_></rects>
      <tilted>0</tilted></_>
    <_>
      <rects>
        <_>
          0 13 1 9 -1.</_>
        <_>
          0 16 1 3 3.</_></rects>
      <tilted>0</tilted></_>
    <_>
      <rects>
        <_>
          0 13 9 4 -1.</_>
        <_>
          3 13 3 4 3.</_></rects>
      <tilted>0</tilted></_>
    <_>
      <rects>
        <_>
          0 13 6 9 -1.</_>
        <_>
          3 13 3 9 2.</_></rects>
      <tilted>0</tilted></_>
    <_>
      <rects>
        <_>
          0 15 1 14 -1.</_>
        <_>
          0 22 1 7 2.</_></rects>
      <tilted>0</tilted></_>
    <_>
      <rects>
        <_>
          0 16 28 2 -1.</_>
        <_>
          14 16 14 2 2.</_></rects>
      <tilted>0</tilted></_>
    <_>
      <rects>
        <_>
          0 18 3 12 -1.</_>
        <_>
          0 24 3 6 2.</_></rects>
      <tilted>0</tilted></_>
    <_>
      <rects>
        <_>
          0 29 21 1 -1.</_>
        <_>
          7 29 7 1 3.</_></rects>
      <tilted>0</tilted></_>
    <_>
      <rects>
        <_>
          1 15 28 1 -1.</_>
        <_>
          15 15 14 1 2.</_></rects>
      <tilted>0</tilted></_>
    <_>
      <rects>
        <_>
          1 17 26 1 -1.</_>
        <_>
          14 17 13 1 2.</_></rects>
      <tilted>0</tilted></_>
    <_>
      <rects>
        <_>
          1 29 8 1 -1.</_>
        <_>
          5 29 4 1 2.</_></rects>
      <tilted>0</tilted></_>
    <_>
      <rects>
        <_>
          2 2 20 10 -1.</_>
        <_>
          12 2 10 10 2.</_></rects>
      <tilted>0</tilted></_>
    <_>
      <rects>
        <_>
          2 7 24 10 -1.</_>
        <_>
          2 12 24 5 2.</_></rects>
      <tilted>0</tilted></_>
    <_>
      <rects>
        <_>
          2 11 18 18 -1.</_>
        <_>
          11 11 9 18 2.</_></rects>
      <tilted>0</tilted></_>
    <_>
      <rects>
        <_>
          2 15 24 1 -1.</_>
        <_>
          14 15 12 1 2.</_></rects>
      <tilted>0</tilted></_>
    <_>
      <rects>
        <_>
          2 29 12 1 -1.</_>
        <_>
          6 29 4 1 3.</_></rects>
      <tilted>0</tilted></_>
    <_>
      <rects>
        <_>
          2 29 28 1 -1.</_>
        <_>
          16 29 14 1 2.</_></rects>
      <tilted>0</tilted></_>
    <_>
      <rects>
        <_>
          3 0 26 30 -1.</_>
        <_>
          16 0 13 30 2.</_></rects>
      <tilted>0</tilted></_>
    <_>
      <rects>
        <_>
          3 0 24 30 -1.</_>
        <_>
          3 15 24 15 2.</_></rects>
      <tilted>0</tilted></_>
    <_>
      <rects>
        <_>
          3 2 26 28 -1.</_>
        <_>
          3 2 13 14 2.</_>
        <_>
          16 16 13 14 2.</_></rects>
      <tilted>0</tilted></_>
    <_>
      <rects>
        <_>
          3 3 7 21 -1.</_>
        <_>
          3 10 7 7 3.</_></rects>
      <tilted>0</tilted></_>
    <_>
      <rects>
        <_>
          3 13 15 6 -1.</_>
        <_>
          3 16 15 3 2.</_></rects>
      <tilted>0</tilted></_>
    <_>
      <rects>
        <_>
          3 19 8 7 -1.</_>
        <_>
          7 19 4 7 2.</_></rects>
      <tilted>0</tilted></_>
    <_>
      <rects>
        <_>
          3 21 8 4 -1.</_>
        <_>
          7 21 4 4 2.</_></rects>
      <tilted>0</tilted></_>
    <_>
      <rects>
        <_>
          4 1 14 16 -1.</_>
        <_>
          4 9 14 8 2.</_></rects>
      <tilted>0</tilted></_>
    <_>
      <rects>
        <_>
          4 2 16 22 -1.</_>
        <_>
          4 2 8 11 2.</_>
        <_>
          12 13 8 11 2.</_></rects>
      <tilted>0</tilted></_>
    <_>
      <rects>
        <_>
          4 2 20 24 -1.</_>
        <_>
          4 10 20 8 3.</_></rects>
      <tilted>0</tilted></_>
    <_>
      <rects>
        <_>
          4 4 6 7 -1.</_>
        <_>
          7 4 3 7 2.</_></rects>
      <tilted>0</tilted></_>
    <_>
      <rects>
        <_>
          4 25 16 4 -1.</_>
        <_>
          4 25 8 2 2.</_>
        <_>
          12 27 8 2 2.</_></rects>
      <tilted>0</tilted></_>
    <_>
      <rects>
        <_>
          4 29 15 1 -1.</_>
        <_>
          9 29 5 1 3.</_></rects>
      <tilted>0</tilted></_>
    <_>
      <rects>
        <_>
          4 29 26 1 -1.</_>
        <_>
          17 29 13 1 2.</_></rects>
      <tilted>0</tilted></_>
    <_>
      <rects>
        <_>
          5 2 24 6 -1.</_>
        <_>
          17 2 12 6 2.</_></rects>
      <tilted>0</tilted></_>
    <_>
      <rects>
        <_>
          5 3 18 10 -1.</_>
        <_>
          11 3 6 10 3.</_></rects>
      <tilted>0</tilted></_>
    <_>
      <rects>
        <_>
          5 5 20 22 -1.</_>
        <_>
          5 5 10 11 2.</_>
        <_>
          15 16 10 11 2.</_></rects>
      <tilted>0</tilted></_>
    <_>
      <rects>
        <_>
          5 8 24 5 -1.</_>
        <_>
          17 8 12 5 2.</_></rects>
      <tilted>0</tilted></_>
    <_>
      <rects>
        <_>
          5 29 20 1 -1.</_>
        <_>
          15 29 10 1 2.</_></rects>
      <tilted>0</tilted></_>
    <_>
      <rects>
        <_>
          6 0 12 1 -1.</_>
        <_>
          12 0 6 1 2.</_></rects>
      <tilted>0</tilted></_>
    <_>
      <rects>
        <_>
          6 11 18 10 -1.</_>
        <_>
          15 11 9 10 2.</_></rects>
      <tilted>0</tilted></_>
    <_>
      <rects>
        <_>
          6 14 12 2 -1.</_>
        <_>
          10 14 4 2 3.</_></rects>
      <tilted>0</tilted></_>
    <_>
      <rects>
        <_>
          6 24 21 6 -1.</_>
        <_>
          6 27 21 3 2.</_></rects>
      <tilted>0</tilted></_>
    <_>
      <rects>
        <_>
          6 29 6 1 -1.</_>
        <_>
          9 29 3 1 2.</_></rects>
      <tilted>0</tilted></_>
    <_>
      <rects>
        <_>
          6 29 14 1 -1.</_>
        <_>
          13 29 7 1 2.</_></rects>
      <tilted>0</tilted></_>
    <_>
      <rects>
        <_>
          7 0 16 1 -1.</_>
        <_>
          15 0 8 1 2.</_></rects>
      <tilted>0</tilted></_>
    <_>
      <rects>
        <_>
          7 2 15 20 -1.</_>
        <_>
          12 2 5 20 3.</_></rects>
      <tilted>0</tilted></_>
    <_>
      <rects>
        <_>
          7 14 3 16 -1.</_>
        <_>
          8 14 1 16 3.</_></rects>
      <tilted>0</tilted></_>
    <_>
      <rects>
        <_>
          7 16 10 10 -1.</_>
        <_>
          7 21 10 5 2.</_></rects>
      <tilted>0</tilted></_>
    <_>
      <rects>
        <_>
          7 21 21 5 -1.</_>
        <_>
          14 21 7 5 3.</_></rects>
      <tilted>0</tilted></_>
    <_>
      <rects>
        <_>
          7 29 20 1 -1.</_>
        <_>
          17 29 10 1 2.</_></rects>
      <tilted>0</tilted></_>
    <_>
      <rects>
        <_>
          8 0 12 1 -1.</_>
        <_>
          12 0 4 1 3.</_></rects>
      <tilted>0</tilted></_>
    <_>
      <rects>
        <_>
          8 1 15 28 -1.</_>
        <_>
          8 15 15 14 2.</_></rects>
      <tilted>0</tilted></_>
    <_>
      <rects>
        <_>
          8 4 22 8 -1.</_>
        <_>
          19 4 11 8 2.</_></rects>
      <tilted>0</tilted></_>
    <_>
      <rects>
        <_>
          8 6 9 21 -1.</_>
        <_>
          11 6 3 21 3.</_></rects>
      <tilted>0</tilted></_>
    <_>
      <rects>
        <_>
          8 6 12 4 -1.</_>
        <_>
          12 6 4 4 3.</_></rects>
      <tilted>0</tilted></_>
    <_>
      <rects>
        <_>
          8 15 6 1 -1.</_>
        <_>
          11 15 3 1 2.</_></rects>
      <tilted>0</tilted></_>
    <_>
      <rects>
        <_>
          8 22 15 2 -1.</_>
        <_>
          8 23 15 1 2.</_></rects>
      <tilted>0</tilted></_>
    <_>
      <rects>
        <_>
          8 23 17 3 -1.</_>
        <_>
          8 24 17 1 3.</_></rects>
      <tilted>0</tilted></_>
    <_>
      <rects>
        <_>
          9 0 12 1 -1.</_>
        <_>
          15 0 6 1 2.</_></rects>
      <tilted>0</tilted></_>
    <_>
      <rects>
        <_>
          9 1 11 26 -1.</_>
        <_>
          9 14 11 13 2.</_></rects>
      <tilted>0</tilted></_>
    <_>
      <rects>
        <_>
          9 3 8 8 -1.</_>
        <_>
          13 3 4 8 2.</_></rects>
      <tilted>0</tilted></_>
    <_>
      <rects>
        <_>
          9 3 12 10 -1.</_>
        <_>
          13 3 4 10 3.</_></rects>
      <tilted>0</tilted></_>
    <_>
      <rects>
        <_>
          9 3 18 7 -1.</_>
        <_>
          18 3 9 7 2.</_></rects>
      <tilted>0</tilted></_>
    <_>
      <rects>
        <_>
          9 8 12 16 -1.</_>
        <_>
          15 8 6 16 2.</_></rects>
      <tilted>0</tilted></_>
    <_>
      <rects>
        <_>
          9 11 16 8 -1.</_>
        <_>
          17 11 8 8 2.</_></rects>
      <tilted>0</tilted></_>
    <_>
      <rects>
        <_>
          9 14 6 3 -1.</_>
        <_>
          12 14 3 3 2.</_></rects>
      <tilted>0</tilted></_>
    <_>
      <rects>
        <_>
          10 6 16 8 -1.</_>
        <_>
          10 6 8 4 2.</_>
        <_>
          18 10 8 4 2.</_></rects>
      <tilted>0</tilted></_>
    <_>
      <rects>
        <_>
          10 14 9 2 -1.</_>
        <_>
          13 14 3 2 3.</_></rects>
      <tilted>0</tilted></_>
    <_>
      <rects>
        <_>
          10 14 16 2 -1.</_>
        <_>
          10 14 8 1 2.</_>
        <_>
          18 15 8 1 2.</_></rects>
      <tilted>0</tilted></_>
    <_>
      <rects>
        <_>
          10 15 6 1 -1.</_>
        <_>
          12 15 2 1 3.</_></rects>
      <tilted>0</tilted></_>
    <_>
      <rects>
        <_>
          10 15 6 1 -1.</_>
        <_>
          13 15 3 1 2.</_></rects>
      <tilted>0</tilted></_>
    <_>
      <rects>
        <_>
          11 9 9 3 -1.</_>
        <_>
          14 9 3 3 3.</_></rects>
      <tilted>0</tilted></_>
    <_>
      <rects>
        <_>
          11 11 6 7 -1.</_>
        <_>
          14 11 3 7 2.</_></rects>
      <tilted>0</tilted></_>
    <_>
      <rects>
        <_>
          12 2 6 25 -1.</_>
        <_>
          14 2 2 25 3.</_></rects>
      <tilted>0</tilted></_>
    <_>
      <rects>
        <_>
          12 4 6 23 -1.</_>
        <_>
          14 4 2 23 3.</_></rects>
      <tilted>0</tilted></_>
    <_>
      <rects>
        <_>
          12 4 6 25 -1.</_>
        <_>
          14 4 2 25 3.</_></rects>
      <tilted>0</tilted></_>
    <_>
      <rects>
        <_>
          12 4 12 4 -1.</_>
        <_>
          18 4 6 4 2.</_></rects>
      <tilted>0</tilted></_>
    <_>
      <rects>
        <_>
          12 5 7 21 -1.</_>
        <_>
          12 12 7 7 3.</_></rects>
      <tilted>0</tilted></_>
    <_>
      <rects>
        <_>
          12 8 18 16 -1.</_>
        <_>
          12 8 9 8 2.</_>
        <_>
          21 16 9 8 2.</_></rects>
      <tilted>0</tilted></_>
    <_>
      <rects>
        <_>
          12 10 9 12 -1.</_>
        <_>
          15 10 3 12 3.</_></rects>
      <tilted>0</tilted></_>
    <_>
      <rects>
        <_>
          12 11 3 8 -1.</_>
        <_>
          12 15 3 4 2.</_></rects>
      <tilted>0</tilted></_>
    <_>
      <rects>
        <_>
          12 14 6 2 -1.</_>
        <_>
          14 14 2 2 3.</_></rects>
      <tilted>0</tilted></_>
    <_>
      <rects>
        <_>
          12 14 12 3 -1.</_>
        <_>
          18 14 6 3 2.</_></rects>
      <tilted>0</tilted></_>
    <_>
      <rects>
        <_>
          12 15 6 1 -1.</_>
        <_>
          14 15 2 1 3.</_></rects>
      <tilted>0</tilted></_>
    <_>
      <rects>
        <_>
          12 20 6 8 -1.</_>
        <_>
          14 20 2 8 3.</_></rects>
      <tilted>0</tilted></_>
    <_>
      <rects>
        <_>
          13 0 1 15 -1.</_>
        <_>
          13 5 1 5 3.</_></rects>
      <tilted>0</tilted></_>
    <_>
      <rects>
        <_>
          13 3 1 14 -1.</_>
        <_>
          13 10 1 7 2.</_></rects>
      <tilted>0</tilted></_>
    <_>
      <rects>
        <_>
          13 4 1 16 -1.</_>
        <_>
          13 12 1 8 2.</_></rects>
      <tilted>0</tilted></_>
    <_>
      <rects>
        <_>
          13 11 2 6 -1.</_>
        <_>
          13 13 2 2 3.</_></rects>
      <tilted>0</tilted></_>
    <_>
      <rects>
        <_>
          13 14 2 1 -1.</_>
        <_>
          14 14 1 1 2.</_></rects>
      <tilted>0</tilted></_>
    <_>
      <rects>
        <_>
          13 15 2 1 -1.</_>
        <_>
          14 15 1 1 2.</_></rects>
      <tilted>0</tilted></_>
    <_>
      <rects>
        <_>
          13 15 3 12 -1.</_>
        <_>
          13 21 3 6 2.</_></rects>
      <tilted>0</tilted></_>
    <_>
      <rects>
        <_>
          13 17 9 3 -1.</_>
        <_>
          13 18 9 1 3.</_></rects>
      <tilted>0</tilted></_>
    <_>
      <rects>
        <_>
          13 22 12 3 -1.</_>
        <_>
          17 22 4 3 3.</_></rects>
      <tilted>0</tilted></_>
    <_>
      <rects>
        <_>
          14 0 8 25 -1.</_>
        <_>
          18 0 4 25 2.</_></rects>
      <tilted>0</tilted></_>
    <_>
      <rects>
        <_>
          14 9 4 21 -1.</_>
        <_>
          16 9 2 21 2.</_></rects>
      <tilted>0</tilted></_>
    <_>
      <rects>
        <_>
          14 10 3 12 -1.</_>
        <_>
          14 16 3 6 2.</_></rects>
      <tilted>0</tilted></_>
    <_>
      <rects>
        <_>
          14 11 1 9 -1.</_>
        <_>
          14 14 1 3 3.</_></rects>
      <tilted>0</tilted></_>
    <_>
      <rects>
        <_>
          14 13 2 4 -1.</_>
        <_>
          14 13 1 2 2.</_>
        <_>
          15 15 1 2 2.</_></rects>
      <tilted>0</tilted></_>
    <_>
      <rects>
        <_>
          14 14 1 2 -1.</_>
        <_>
          14 15 1 1 2.</_></rects>
      <tilted>0</tilted></_>
    <_>
      <rects>
        <_>
          14 14 2 2 -1.</_>
        <_>
          14 14 1 1 2.</_>
        <_>
          15 15 1 1 2.</_></rects>
      <tilted>0</tilted></_>
    <_>
      <rects>
        <_>
          14 14 1 10 -1.</_>
        <_>
          14 19 1 5 2.</_></rects>
      <tilted>0</tilted></_>
    <_>
      <rects>
        <_>
          14 21 4 4 -1.</_>
        <_>
          16 21 2 4 2.</_></rects>
      <tilted>0</tilted></_>
    <_>
      <rects>
        <_>
          14 22 4 3 -1.</_>
        <_>
          16 22 2 3 2.</_></rects>
      <tilted>0</tilted></_>
    <_>
      <rects>
        <_>
          15 1 12 26 -1.</_>
        <_>
          15 14 12 13 2.</_></rects>
      <tilted>0</tilted></_>
    <_>
      <rects>
        <_>
          15 7 2 22 -1.</_>
        <_>
          15 7 1 11 2.</_>
        <_>
          16 18 1 11 2.</_></rects>
      <tilted>0</tilted></_>
    <_>
      <rects>
        <_>
          15 8 2 8 -1.</_>
        <_>
          15 8 1 4 2.</_>
        <_>
          16 12 1 4 2.</_></rects>
      <tilted>0</tilted></_>
    <_>
      <rects>
        <_>
          15 13 1 4 -1.</_>
        <_>
          15 15 1 2 2.</_></rects>
      <tilted>0</tilted></_>
    <_>
      <rects>
        <_>
          15 14 1 2 -1.</_>
        <_>
          15 15 1 1 2.</_></rects>
      <tilted>0</tilted></_>
    <_>
      <rects>
        <_>
          15 14 1 10 -1.</_>
        <_>
          15 19 1 5 2.</_></rects>
      <tilted>0</tilted></_>
    <_>
      <rects>
        <_>
          15 15 1 2 -1.</_>
        <_>
          15 16 1 1 2.</_></rects>
      <tilted>0</tilted></_>
    <_>
      <rects>
        <_>
          15 15 2 4 -1.</_>
        <_>
          15 15 1 2 2.</_>
        <_>
          16 17 1 2 2.</_></rects>
      <tilted>0</tilted></_>
    <_>
      <rects>
        <_>
          16 2 2 16 -1.</_>
        <_>
          17 2 1 16 2.</_></rects>
      <tilted>0</tilted></_>
    <_>
      <rects>
        <_>
          16 5 1 18 -1.</_>
        <_>
          16 11 1 6 3.</_></rects>
      <tilted>0</tilted></_>
    <_>
      <rects>
        <_>
          16 10 1 6 -1.</_>
        <_>
          16 12 1 2 3.</_></rects>
      <tilted>0</tilted></_>
    <_>
      <rects>
        <_>
          16 16 2 12 -1.</_>
        <_>
          16 20 2 4 3.</_></rects>
      <tilted>0</tilted></_>
    <_>
      <rects>
        <_>
          17 0 2 22 -1.</_>
        <_>
          18 0 1 22 2.</_></rects>
      <tilted>0</tilted></_>
    <_>
      <rects>
        <_>
          17 0 10 1 -1.</_>
        <_>
          22 0 5 1 2.</_></rects>
      <tilted>0</tilted></_>
    <_>
      <rects>
        <_>
          17 8 2 16 -1.</_>
        <_>
          17 8 1 8 2.</_>
        <_>
          18 16 1 8 2.</_></rects>
      <tilted>0</tilted></_>
    <_>
      <rects>
        <_>
          17 10 6 9 -1.</_>
        <_>
          19 10 2 9 3.</_></rects>
      <tilted>0</tilted></_>
    <_>
      <rects>
        <_>
          17 14 6 2 -1.</_>
        <_>
          19 14 2 2 3.</_></rects>
      <tilted>0</tilted></_>
    <_>
      <rects>
        <_>
          17 15 6 3 -1.</_>
        <_>
          19 15 2 3 3.</_></rects>
      <tilted>0</tilted></_>
    <_>
      <rects>
        <_>
          17 17 4 8 -1.</_>
        <_>
          17 21 4 4 2.</_></rects>
      <tilted>0</tilted></_>
    <_>
      <rects>
        <_>
          18 2 2 20 -1.</_>
        <_>
          18 2 1 10 2.</_>
        <_>
          19 12 1 10 2.</_></rects>
      <tilted>0</tilted></_>
    <_>
      <rects>
        <_>
          18 13 3 6 -1.</_>
        <_>
          19 13 1 6 3.</_></rects>
      <tilted>0</tilted></_>
    <_>
      <rects>
        <_>
          18 13 6 4 -1.</_>
        <_>
          20 13 2 4 3.</_></rects>
      <tilted>0</tilted></_>
    <_>
      <rects>
        <_>
          18 15 8 15 -1.</_>
        <_>
          22 15 4 15 2.</_></rects>
      <tilted>0</tilted></_>
    <_>
      <rects>
        <_>
          19 1 9 3 -1.</_>
        <_>
          22 1 3 3 3.</_></rects>
      <tilted>0</tilted></_>
    <_>
      <rects>
        <_>
          19 3 3 18 -1.</_>
        <_>
          20 3 1 18 3.</_></rects>
      <tilted>0</tilted></_>
    <_>
      <rects>
        <_>
          20 0 7 12 -1.</_>
        <_>
          20 6 7 6 2.</_></rects>
      <tilted>0</tilted></_>
    <_>
      <rects>
        <_>
          23 17 6 1 -1.</_>
        <_>
          26 17 3 1 2.</_></rects>
      <tilted>0</tilted></_>
    <_>
      <rects>
        <_>
          24 10 6 2 -1.</_>
        <_>
          26 10 2 2 3.</_></rects>
      <tilted>0</tilted></_>
    <_>
      <rects>
        <_>
          24 21 6 6 -1.</_>
        <_>
          24 24 6 3 2.</_></rects>
      <tilted>0</tilted></_>
    <_>
      <rects>
        <_>
          25 18 4 4 -1.</_>
        <_>
          25 20 4 2 2.</_></rects>
      <tilted>0</tilted></_>
    <_>
      <rects>
        <_>
          25 20 4 8 -1.</_>
        <_>
          25 24 4 4 2.</_></rects>
      <tilted>0</tilted></_>
    <_>
      <rects>
        <_>
          27 19 3 2 -1.</_>
        <_>
          28 19 1 2 3.</_></rects>
      <tilted>0</tilted></_>
    <_>
      <rects>
        <_>
          27 19 3 3 -1.</_>
        <_>
          28 19 1 3 3.</_></rects>
      <tilted>0</tilted></_>
    <_>
      <rects>
        <_>
          29 0 1 30 -1.</_>
        <_>
          29 15 1 15 2.</_></rects>
      <tilted>0</tilted></_>
    <_>
      <rects>
        <_>
          29 5 1 20 -1.</_>
        <_>
          29 15 1 10 2.</_></rects>
      <tilted>0</tilted></_>
    <_>
      <rects>
        <_>
          29 8 1 12 -1.</_>
        <_>
          29 14 1 6 2.</_></rects>
      <tilted>0</tilted></_></features></cascade>
</opencv_storage>
