<?xml version="1.0"?>
<opencv_storage>
<cascade>
  <stageType>BOOST</stageType>
  <featureType>HAAR</featureType>
  <height>30</height>
  <width>30</width>
  <stageParams>
    <boostType>GAB</boostType>
    <minHitRate>9.9500000476837158e-01</minHitRate>
    <maxFalseAlarm>5.0000000000000000e-01</maxFalseAlarm>
    <weightTrimRate>9.4999998807907104e-01</weightTrimRate>
    <maxDepth>1</maxDepth>
    <maxWeakCount>100</maxWeakCount></stageParams>
  <featureParams>
    <maxCatCount>0</maxCatCount>
    <featSize>1</featSize>
    <mode>BASIC</mode></featureParams>
  <stageNum>13</stageNum>
  <stages>
    <!-- stage 0 -->
    <_>
      <maxWeakCount>5</maxWeakCount>
      <stageThreshold>-2.0215811729431152e+00</stageThreshold>
      <weakClassifiers>
        <_>
          <internalNodes>
            0 -1 48 -1.1081325821578503e-02</internalNodes>
          <leafValues>
            7.6923078298568726e-01 -9.1891890764236450e-01</leafValues></_>
        <_>
          <internalNodes>
            0 -1 55 -8.8313333690166473e-03</internalNodes>
          <leafValues>
            7.0847618579864502e-01 -6.7618405818939209e-01</leafValues></_>
        <_>
          <internalNodes>
            0 -1 66 7.1384961302101146e-06</internalNodes>
          <leafValues>
            2.0862466096878052e-01 -9.6230763196945190e-01</leafValues></_>
        <_>
          <internalNodes>
            0 -1 72 -2.1930984075879678e-05</internalNodes>
          <leafValues>
            -8.8248473405838013e-01 2.2400507330894470e-01</leafValues></_>
        <_>
          <internalNodes>
            0 -1 76 2.8721266426146030e-04</internalNodes>
          <leafValues>
            2.4738180637359619e-01 -9.5578634738922119e-01</leafValues></_></weakClassifiers></_>
    <!-- stage 1 -->
    <_>
      <maxWeakCount>5</maxWeakCount>
      <stageThreshold>-2.0893573760986328e+00</stageThreshold>
      <weakClassifiers>
        <_>
          <internalNodes>
            0 -1 76 -2.4516892153769732e-04</internalNodes>
          <leafValues>
            -9.7674417495727539e-01 8.4507040679454803e-02</leafValues></_>
        <_>
          <internalNodes>
            0 -1 66 -8.3352015280979685e-06</internalNodes>
          <leafValues>
            -9.2584288120269775e-01 6.9666273891925812e-02</leafValues></_>
        <_>
          <internalNodes>
            0 -1 74 -3.5005414974875748e-04</internalNodes>
          <leafValues>
            -7.2617602348327637e-01 3.0911144614219666e-01</leafValues></_>
        <_>
          <internalNodes>
            0 -1 9 9.4703347713220865e-05</internalNodes>
          <leafValues>
            2.3398546874523163e-01 -9.8258858919143677e-01</leafValues></_>
        <_>
          <internalNodes>
            0 -1 14 -8.1030811998061836e-06</internalNodes>
          <leafValues>
            -9.3726330995559692e-01 3.0542033910751343e-01</leafValues></_></weakClassifiers></_>
    <!-- stage 2 -->
    <_>
      <maxWeakCount>4</maxWeakCount>
      <stageThreshold>-2.1346983909606934e+00</stageThreshold>
      <weakClassifiers>
        <_>
          <internalNodes>
            0 -1 33 -2.2645656019449234e-02</internalNodes>
          <leafValues>
            8.8461536169052124e-01 -9.2471045255661011e-01</leafValues></_>
        <_>
          <internalNodes>
            0 -1 77 -3.4251238685101271e-04</internalNodes>
          <leafValues>
            -9.1975414752960205e-01 1.2720790505409241e-01</leafValues></_>
        <_>
          <internalNodes>
            0 -1 11 -1.4125475659966469e-02</internalNodes>
          <leafValues>
            4.9255049228668213e-01 -5.8495849370956421e-01</leafValues></_>
        <_>
          <internalNodes>
            0 -1 25 -2.9752205591648817e-04</internalNodes>
          <leafValues>
            -9.3191796541213989e-01 2.9472464323043823e-01</leafValues></_></weakClassifiers></_>
    <!-- stage 3 -->
    <_>
      <maxWeakCount>4</maxWeakCount>
      <stageThreshold>-1.6202297210693359e+00</stageThreshold>
      <weakClassifiers>
        <_>
          <internalNodes>
            0 -1 39 -3.6589629948139191e-02</internalNodes>
          <leafValues>
            9.5238095521926880e-01 -9.1013383865356445e-01</leafValues></_>
        <_>
          <internalNodes>
            0 -1 41 3.2243397086858749e-02</internalNodes>
          <leafValues>
            -8.1063675880432129e-01 2.4421909451484680e-01</leafValues></_>
        <_>
          <internalNodes>
            0 -1 6 -2.3935612291097641e-02</internalNodes>
          <leafValues>
            4.1517469286918640e-01 -5.8969521522521973e-01</leafValues></_>
        <_>
          <internalNodes>
            0 -1 61 -3.3386936411261559e-03</internalNodes>
          <leafValues>
            8.8048702478408813e-01 -3.1463384628295898e-01</leafValues></_></weakClassifiers></_>
    <!-- stage 4 -->
    <_>
      <maxWeakCount>6</maxWeakCount>
      <stageThreshold>-2.0331807136535645e+00</stageThreshold>
      <weakClassifiers>
        <_>
          <internalNodes>
            0 -1 32 -7.8214019536972046e-02</internalNodes>
          <leafValues>
            9.4444441795349121e-01 -8.9923954010009766e-01</leafValues></_>
        <_>
          <internalNodes>
            0 -1 40 1.6489591449499130e-02</internalNodes>
          <leafValues>
            -7.8555071353912354e-01 1.8254733085632324e-01</leafValues></_>
        <_>
          <internalNodes>
            0 -1 57 -4.5284432417247444e-05</internalNodes>
          <leafValues>
            5.3744202852249146e-01 -4.8011204600334167e-01</leafValues></_>
        <_>
          <internalNodes>
            0 -1 0 3.2199812121689320e-03</internalNodes>
          <leafValues>
            2.1391336619853973e-01 -1.</leafValues></_>
        <_>
          <internalNodes>
            0 -1 42 -4.2381342500448227e-03</internalNodes>
          <leafValues>
            3.3602547645568848e-01 -5.9576445817947388e-01</leafValues></_>
        <_>
          <internalNodes>
            0 -1 50 1.9959857687354088e-02</internalNodes>
          <leafValues>
            -3.8815617561340332e-01 5.1357275247573853e-01</leafValues></_></weakClassifiers></_>
    <!-- stage 5 -->
    <_>
      <maxWeakCount>4</maxWeakCount>
      <stageThreshold>-1.2165518999099731e+00</stageThreshold>
      <weakClassifiers>
        <_>
          <internalNodes>
            0 -1 38 -5.3907096385955811e-02</internalNodes>
          <leafValues>
            6.9230771064758301e-01 -8.9513820409774780e-01</leafValues></_>
        <_>
          <internalNodes>
            0 -1 24 -2.0702680945396423e-01</internalNodes>
          <leafValues>
            5.4308891296386719e-01 -5.9803867340087891e-01</leafValues></_>
        <_>
          <internalNodes>
            0 -1 2 3.0199596658349037e-03</internalNodes>
          <leafValues>
            1.4138628542423248e-01 -1.</leafValues></_>
        <_>
          <internalNodes>
            0 -1 20 -9.9206250160932541e-04</internalNodes>
          <leafValues>
            -9.7948968410491943e-01 1.3523869216442108e-01</leafValues></_></weakClassifiers></_>
    <!-- stage 6 -->
    <_>
      <maxWeakCount>7</maxWeakCount>
      <stageThreshold>-1.9325903654098511e+00</stageThreshold>
      <weakClassifiers>
        <_>
          <internalNodes>
            0 -1 49 -3.2155115157365799e-02</internalNodes>
          <leafValues>
            8.3333331346511841e-01 -8.9543724060058594e-01</leafValues></_>
        <_>
          <internalNodes>
            0 -1 44 -8.5079073905944824e-02</internalNodes>
          <leafValues>
            6.5696394443511963e-01 -5.9228616952896118e-01</leafValues></_>
        <_>
          <internalNodes>
            0 -1 77 -3.3659738255664706e-04</internalNodes>
          <leafValues>
            -7.2421407699584961e-01 2.7443820238113403e-01</leafValues></_>
        <_>
          <internalNodes>
            0 -1 8 -3.8092005997896194e-03</internalNodes>
          <leafValues>
            -8.4906446933746338e-01 1.8796552717685699e-01</leafValues></_>
        <_>
          <internalNodes>
            0 -1 35 -1.3301705475896597e-03</internalNodes>
          <leafValues>
            -9.1645890474319458e-01 1.9678324460983276e-01</leafValues></_>
        <_>
          <internalNodes>
            0 -1 43 2.9056230559945107e-03</internalNodes>
          <leafValues>
            -3.4303748607635498e-01 5.7998406887054443e-01</leafValues></_>
        <_>
          <internalNodes>
            0 -1 70 -5.4346135584637523e-05</internalNodes>
          <leafValues>
            -6.4700794219970703e-01 3.1386166810989380e-01</leafValues></_></weakClassifiers></_>
    <!-- stage 7 -->
    <_>
      <maxWeakCount>8</maxWeakCount>
      <stageThreshold>-1.8451575040817261e+00</stageThreshold>
      <weakClassifiers>
        <_>
          <internalNodes>
            0 -1 47 -1.7280016094446182e-02</internalNodes>
          <leafValues>
            7.2413790225982666e-01 -8.8101983070373535e-01</leafValues></_>
        <_>
          <internalNodes>
            0 -1 46 -5.2536442875862122e-02</internalNodes>
          <leafValues>
            6.9925153255462646e-01 -5.5722272396087646e-01</leafValues></_>
        <_>
          <internalNodes>
            0 -1 15 -2.3810586426407099e-03</internalNodes>
          <leafValues>
            5.6348395347595215e-01 -3.2198506593704224e-01</leafValues></_>
        <_>
          <internalNodes>
            0 -1 73 2.2395048290491104e-04</internalNodes>
          <leafValues>
            1.8616548180580139e-01 -7.9862368106842041e-01</leafValues></_>
        <_>
          <internalNodes>
            0 -1 26 6.2073301523923874e-03</internalNodes>
          <leafValues>
            -2.5338184833526611e-01 5.5209010839462280e-01</leafValues></_>
        <_>
          <internalNodes>
            0 -1 63 1.2093745172023773e-03</internalNodes>
          <leafValues>
            -3.6973023414611816e-01 3.5606703162193298e-01</leafValues></_>
        <_>
          <internalNodes>
            0 -1 79 -2.7282532755634747e-05</internalNodes>
          <leafValues>
            -7.9552441835403442e-01 1.6266825795173645e-01</leafValues></_>
        <_>
          <internalNodes>
            0 -1 12 -1.2079989537596703e-02</internalNodes>
          <leafValues>
            3.6113592982292175e-01 -3.8372814655303955e-01</leafValues></_></weakClassifiers></_>
    <!-- stage 8 -->
    <_>
      <maxWeakCount>7</maxWeakCount>
      <stageThreshold>-1.6953754425048828e+00</stageThreshold>
      <weakClassifiers>
        <_>
          <internalNodes>
            0 -1 53 -4.3642312288284302e-02</internalNodes>
          <leafValues>
            7.7777779102325439e-01 -8.7935906648635864e-01</leafValues></_>
        <_>
          <internalNodes>
            0 -1 54 -3.3447343856096268e-02</internalNodes>
          <leafValues>
            5.9422886371612549e-01 -5.6987696886062622e-01</leafValues></_>
        <_>
          <internalNodes>
            0 -1 58 -9.2064408818259835e-05</internalNodes>
          <leafValues>
            4.2079168558120728e-01 -3.8683009147644043e-01</leafValues></_>
        <_>
          <internalNodes>
            0 -1 56 5.5570586118847132e-04</internalNodes>
          <leafValues>
            -3.4931382536888123e-01 5.8274728059768677e-01</leafValues></_>
        <_>
          <internalNodes>
            0 -1 28 2.9234245885163546e-03</internalNodes>
          <leafValues>
            1.9524164497852325e-01 -8.7765079736709595e-01</leafValues></_>
        <_>
          <internalNodes>
            0 -1 75 3.5474516917020082e-03</internalNodes>
          <leafValues>
            1.6488538682460785e-01 -9.6113920211791992e-01</leafValues></_>
        <_>
          <internalNodes>
            0 -1 69 1.2005300959572196e-04</internalNodes>
          <leafValues>
            -4.3516609072685242e-01 3.9514818787574768e-01</leafValues></_></weakClassifiers></_>
    <!-- stage 9 -->
    <_>
      <maxWeakCount>6</maxWeakCount>
      <stageThreshold>-1.5728722810745239e+00</stageThreshold>
      <weakClassifiers>
        <_>
          <internalNodes>
            0 -1 51 -8.3010435104370117e-02</internalNodes>
          <leafValues>
            6.5517240762710571e-01 -8.7913125753402710e-01</leafValues></_>
        <_>
          <internalNodes>
            0 -1 29 -5.7565968483686447e-02</internalNodes>
          <leafValues>
            5.9263592958450317e-01 -5.6973934173583984e-01</leafValues></_>
        <_>
          <internalNodes>
            0 -1 52 -1.0737505508586764e-03</internalNodes>
          <leafValues>
            -1. 7.3321737349033356e-02</leafValues></_>
        <_>
          <internalNodes>
            0 -1 30 1.4645827468484640e-03</internalNodes>
          <leafValues>
            1.1997317522764206e-01 -9.8936516046524048e-01</leafValues></_>
        <_>
          <internalNodes>
            0 -1 71 -2.8216047212481499e-03</internalNodes>
          <leafValues>
            3.5740074515342712e-01 -3.4239631891250610e-01</leafValues></_>
        <_>
          <internalNodes>
            0 -1 7 -2.0563376892823726e-05</internalNodes>
          <leafValues>
            -6.7469739913940430e-01 1.7467352747917175e-01</leafValues></_></weakClassifiers></_>
    <!-- stage 10 -->
    <_>
      <maxWeakCount>9</maxWeakCount>
      <stageThreshold>-1.9020951986312866e+00</stageThreshold>
      <weakClassifiers>
        <_>
          <internalNodes>
            0 -1 31 -3.3253413438796997e-01</internalNodes>
          <leafValues>
            4.6153846383094788e-01 -8.7005650997161865e-01</leafValues></_>
        <_>
          <internalNodes>
            0 -1 22 -2.5694124633446336e-04</internalNodes>
          <leafValues>
            1.5272703021764755e-02 -6.3254511356353760e-01</leafValues></_>
        <_>
          <internalNodes>
            0 -1 64 -5.2243958634790033e-05</internalNodes>
          <leafValues>
            3.3800035715103149e-01 -3.5434201359748840e-01</leafValues></_>
        <_>
          <internalNodes>
            0 -1 78 2.4267160915769637e-04</internalNodes>
          <leafValues>
            1.7240671813488007e-01 -7.0206356048583984e-01</leafValues></_>
        <_>
          <internalNodes>
            0 -1 21 -3.9553456008434296e-03</internalNodes>
          <leafValues>
            -6.3886541128158569e-01 2.3022723197937012e-01</leafValues></_>
        <_>
          <internalNodes>
            0 -1 4 -1.8196429591625929e-03</internalNodes>
          <leafValues>
            4.2453560233116150e-01 -2.9167622327804565e-01</leafValues></_>
        <_>
          <internalNodes>
            0 -1 17 1.1221241038583685e-05</internalNodes>
          <leafValues>
            2.0306499302387238e-01 -6.4167135953903198e-01</leafValues></_>
        <_>
          <internalNodes>
            0 -1 27 6.8597006611526012e-04</internalNodes>
          <leafValues>
            -2.7491456270217896e-01 5.0970137119293213e-01</leafValues></_>
        <_>
          <internalNodes>
            0 -1 68 -5.2304162636573892e-06</internalNodes>
          <leafValues>
            -4.4888025522232056e-01 2.8940910100936890e-01</leafValues></_></weakClassifiers></_>
    <!-- stage 11 -->
    <_>
      <maxWeakCount>9</maxWeakCount>
      <stageThreshold>-1.7381682395935059e+00</stageThreshold>
      <weakClassifiers>
        <_>
          <internalNodes>
            0 -1 37 -1.6757872700691223e-01</internalNodes>
          <leafValues>
            5.7894736528396606e-01 -8.6342376470565796e-01</leafValues></_>
        <_>
          <internalNodes>
            0 -1 34 7.7906780643388629e-04</internalNodes>
          <leafValues>
            -5.6336218118667603e-01 1.3994173705577850e-01</leafValues></_>
        <_>
          <internalNodes>
            0 -1 1 4.4570071622729301e-03</internalNodes>
          <leafValues>
            7.4752807617187500e-02 -9.3870782852172852e-01</leafValues></_>
        <_>
          <internalNodes>
            0 -1 18 -1.6981796920299530e-01</internalNodes>
          <leafValues>
            -7.9236298799514771e-01 1.5977385640144348e-01</leafValues></_>
        <_>
          <internalNodes>
            0 -1 16 1.3468572869896889e-02</internalNodes>
          <leafValues>
            1.4414282143115997e-01 -7.8022336959838867e-01</leafValues></_>
        <_>
          <internalNodes>
            0 -1 10 -2.4697758257389069e-01</internalNodes>
          <leafValues>
            -1. 8.6826600134372711e-02</leafValues></_>
        <_>
          <internalNodes>
            0 -1 19 -3.7300170515663922e-04</internalNodes>
          <leafValues>
            2.6372146606445313e-01 -4.1236034035682678e-01</leafValues></_>
        <_>
          <internalNodes>
            0 -1 13 -6.9085144787095487e-05</internalNodes>
          <leafValues>
            -8.8516485691070557e-01 1.4310015738010406e-01</leafValues></_>
        <_>
          <internalNodes>
            0 -1 67 4.7699794173240662e-02</internalNodes>
          <leafValues>
            -1.5543498098850250e-01 9.4600039720535278e-01</leafValues></_></weakClassifiers></_>
    <!-- stage 12 -->
    <_>
      <maxWeakCount>9</maxWeakCount>
      <stageThreshold>-1.6057686805725098e+00</stageThreshold>
      <weakClassifiers>
        <_>
          <internalNodes>
            0 -1 45 -2.9785203933715820e-01</internalNodes>
          <leafValues>
            3.8461539149284363e-01 -8.6817324161529541e-01</leafValues></_>
        <_>
          <internalNodes>
            0 -1 3 -3.5084458068013191e-04</internalNodes>
          <leafValues>
            -4.4852092862129211e-02 -6.1927998065948486e-01</leafValues></_>
        <_>
          <internalNodes>
            0 -1 65 -1.0366279166191816e-03</internalNodes>
          <leafValues>
            -8.5897243022918701e-01 6.3612468540668488e-02</leafValues></_>
        <_>
          <internalNodes>
            0 -1 36 7.0329297159332782e-06</internalNodes>
          <leafValues>
            2.0482763648033142e-01 -4.7280701994895935e-01</leafValues></_>
        <_>
          <internalNodes>
            0 -1 62 -1.8321082461625338e-04</internalNodes>
          <leafValues>
            3.1093749403953552e-01 -3.2485044002532959e-01</leafValues></_>
        <_>
          <internalNodes>
            0 -1 60 6.7059692810289562e-05</internalNodes>
          <leafValues>
            -2.7494412660598755e-01 4.3785911798477173e-01</leafValues></_>
        <_>
          <internalNodes>
            0 -1 59 -6.6759657784132287e-06</internalNodes>
          <leafValues>
            -7.9183417558670044e-01 1.5462136268615723e-01</leafValues></_>
        <_>
          <internalNodes>
            0 -1 23 1.3219701359048486e-03</internalNodes>
          <leafValues>
            -2.1257126331329346e-01 4.8151385784149170e-01</leafValues></_>
        <_>
          <internalNodes>
            0 -1 5 -1.1934259906411171e-02</internalNodes>
          <leafValues>
            3.7968602776527405e-01 -2.6159226894378662e-01</leafValues></_></weakClassifiers></_></stages>
  <features>
    <_>
      <rects>
        <_>
          0 0 1 18 -1.</_>
        <_>
          0 6 1 6 3.</_></rects>
      <tilted>0</tilted></_>
    <_>
      <rects>
        <_>
          0 0 18 1 -1.</_>
        <_>
          6 0 6 1 3.</_></rects>
      <tilted>0</tilted></_>
    <_>
      <rects>
        <_>
          0 2 1 26 -1.</_>
        <_>
          0 15 1 13 2.</_></rects>
      <tilted>0</tilted></_>
    <_>
      <rects>
        <_>
          0 3 28 3 -1.</_>
        <_>
          0 4 28 1 3.</_></rects>
      <tilted>0</tilted></_>
    <_>
      <rects>
        <_>
          0 5 4 15 -1.</_>
        <_>
          2 5 2 15 2.</_></rects>
      <tilted>0</tilted></_>
    <_>
      <rects>
        <_>
          0 5 6 22 -1.</_>
        <_>
          3 5 3 22 2.</_></rects>
      <tilted>0</tilted></_>
    <_>
      <rects>
        <_>
          0 6 18 15 -1.</_>
        <_>
          9 6 9 15 2.</_></rects>
      <tilted>0</tilted></_>
    <_>
      <rects>
        <_>
          0 9 1 18 -1.</_>
        <_>
          0 15 1 6 3.</_></rects>
      <tilted>0</tilted></_>
    <_>
      <rects>
        <_>
          0 10 1 18 -1.</_>
        <_>
          0 19 1 9 2.</_></rects>
      <tilted>0</tilted></_>
    <_>
      <rects>
        <_>
          0 10 2 3 -1.</_>
        <_>
          0 11 2 1 3.</_></rects>
      <tilted>0</tilted></_>
    <_>
      <rects>
        <_>
          0 10 28 20 -1.</_>
        <_>
          14 10 14 20 2.</_></rects>
      <tilted>0</tilted></_>
    <_>
      <rects>
        <_>
          0 14 30 1 -1.</_>
        <_>
          10 14 10 1 3.</_></rects>
      <tilted>0</tilted></_>
    <_>
      <rects>
        <_>
          0 15 29 15 -1.</_>
        <_>
          0 20 29 5 3.</_></rects>
      <tilted>0</tilted></_>
    <_>
      <rects>
        <_>
          0 18 1 9 -1.</_>
        <_>
          0 21 1 3 3.</_></rects>
      <tilted>0</tilted></_>
    <_>
      <rects>
        <_>
          1 0 12 1 -1.</_>
        <_>
          5 0 4 1 3.</_></rects>
      <tilted>0</tilted></_>
    <_>
      <rects>
        <_>
          1 0 14 4 -1.</_>
        <_>
          1 2 14 2 2.</_></rects>
      <tilted>0</tilted></_>
    <_>
      <rects>
        <_>
          1 6 23 18 -1.</_>
        <_>
          1 15 23 9 2.</_></rects>
      <tilted>0</tilted></_>
    <_>
      <rects>
        <_>
          1 27 16 3 -1.</_>
        <_>
          9 27 8 3 2.</_></rects>
      <tilted>0</tilted></_>
    <_>
      <rects>
        <_>
          2 4 21 24 -1.</_>
        <_>
          2 16 21 12 2.</_></rects>
      <tilted>0</tilted></_>
    <_>
      <rects>
        <_>
          2 10 25 2 -1.</_>
        <_>
          2 11 25 1 2.</_></rects>
      <tilted>0</tilted></_>
    <_>
      <rects>
        <_>
          3 29 15 1 -1.</_>
        <_>
          8 29 5 1 3.</_></rects>
      <tilted>0</tilted></_>
    <_>
      <rects>
        <_>
          3 29 27 1 -1.</_>
        <_>
          12 29 9 1 3.</_></rects>
      <tilted>0</tilted></_>
    <_>
      <rects>
        <_>
          4 2 23 2 -1.</_>
        <_>
          4 3 23 1 2.</_></rects>
      <tilted>0</tilted></_>
    <_>
      <rects>
        <_>
          4 5 12 4 -1.</_>
        <_>
          4 7 12 2 2.</_></rects>
      <tilted>0</tilted></_>
    <_>
      <rects>
        <_>
          4 14 21 15 -1.</_>
        <_>
          11 14 7 15 3.</_></rects>
      <tilted>0</tilted></_>
    <_>
      <rects>
        <_>
          5 0 8 1 -1.</_>
        <_>
          9 0 4 1 2.</_></rects>
      <tilted>0</tilted></_>
    <_>
      <rects>
        <_>
          7 4 16 6 -1.</_>
        <_>
          7 6 16 2 3.</_></rects>
      <tilted>0</tilted></_>
    <_>
      <rects>
        <_>
          7 27 20 2 -1.</_>
        <_>
          7 28 20 1 2.</_></rects>
      <tilted>0</tilted></_>
    <_>
      <rects>
        <_>
          8 0 18 1 -1.</_>
        <_>
          14 0 6 1 3.</_></rects>
      <tilted>0</tilted></_>
    <_>
      <rects>
        <_>
          8 13 12 3 -1.</_>
        <_>
          12 13 4 3 3.</_></rects>
      <tilted>0</tilted></_>
    <_>
      <rects>
        <_>
          9 6 5 4 -1.</_>
        <_>
          9 8 5 2 2.</_></rects>
      <tilted>0</tilted></_>
    <_>
      <rects>
        <_>
          9 12 12 16 -1.</_>
        <_>
          13 12 4 16 3.</_></rects>
      <tilted>0</tilted></_>
    <_>
      <rects>
        <_>
          9 13 12 4 -1.</_>
        <_>
          13 13 4 4 3.</_></rects>
      <tilted>0</tilted></_>
    <_>
      <rects>
        <_>
          9 15 12 2 -1.</_>
        <_>
          13 15 4 2 3.</_></rects>
      <tilted>0</tilted></_>
    <_>
      <rects>
        <_>
          9 26 20 2 -1.</_>
        <_>
          9 26 10 1 2.</_>
        <_>
          19 27 10 1 2.</_></rects>
      <tilted>0</tilted></_>
    <_>
      <rects>
        <_>
          10 0 18 1 -1.</_>
        <_>
          16 0 6 1 3.</_></rects>
      <tilted>0</tilted></_>
    <_>
      <rects>
        <_>
          10 2 1 9 -1.</_>
        <_>
          10 5 1 3 3.</_></rects>
      <tilted>0</tilted></_>
    <_>
      <rects>
        <_>
          10 11 6 16 -1.</_>
        <_>
          13 11 3 16 2.</_></rects>
      <tilted>0</tilted></_>
    <_>
      <rects>
        <_>
          10 13 9 3 -1.</_>
        <_>
          13 13 3 3 3.</_></rects>
      <tilted>0</tilted></_>
    <_>
      <rects>
        <_>
          10 14 9 3 -1.</_>
        <_>
          13 14 3 3 3.</_></rects>
      <tilted>0</tilted></_>
    <_>
      <rects>
        <_>
          10 16 20 3 -1.</_>
        <_>
          20 16 10 3 2.</_></rects>
      <tilted>0</tilted></_>
    <_>
      <rects>
        <_>
          11 2 10 15 -1.</_>
        <_>
          11 7 10 5 3.</_></rects>
      <tilted>0</tilted></_>
    <_>
      <rects>
        <_>
          11 5 15 10 -1.</_>
        <_>
          11 10 15 5 2.</_></rects>
      <tilted>0</tilted></_>
    <_>
      <rects>
        <_>
          11 16 6 3 -1.</_>
        <_>
          13 16 2 3 3.</_></rects>
      <tilted>0</tilted></_>
    <_>
      <rects>
        <_>
          12 9 7 12 -1.</_>
        <_>
          12 13 7 4 3.</_></rects>
      <tilted>0</tilted></_>
    <_>
      <rects>
        <_>
          12 10 6 19 -1.</_>
        <_>
          14 10 2 19 3.</_></rects>
      <tilted>0</tilted></_>
    <_>
      <rects>
        <_>
          12 11 5 9 -1.</_>
        <_>
          12 14 5 3 3.</_></rects>
      <tilted>0</tilted></_>
    <_>
      <rects>
        <_>
          12 14 6 1 -1.</_>
        <_>
          14 14 2 1 3.</_></rects>
      <tilted>0</tilted></_>
    <_>
      <rects>
        <_>
          12 14 6 2 -1.</_>
        <_>
          14 14 2 2 3.</_></rects>
      <tilted>0</tilted></_>
    <_>
      <rects>
        <_>
          12 14 6 3 -1.</_>
        <_>
          14 14 2 3 3.</_></rects>
      <tilted>0</tilted></_>
    <_>
      <rects>
        <_>
          12 14 15 11 -1.</_>
        <_>
          17 14 5 11 3.</_></rects>
      <tilted>0</tilted></_>
    <_>
      <rects>
        <_>
          12 21 6 8 -1.</_>
        <_>
          14 21 2 8 3.</_></rects>
      <tilted>0</tilted></_>
    <_>
      <rects>
        <_>
          13 2 1 8 -1.</_>
        <_>
          13 6 1 4 2.</_></rects>
      <tilted>0</tilted></_>
    <_>
      <rects>
        <_>
          13 2 2 22 -1.</_>
        <_>
          14 2 1 22 2.</_></rects>
      <tilted>0</tilted></_>
    <_>
      <rects>
        <_>
          13 8 3 8 -1.</_>
        <_>
          13 12 3 4 2.</_></rects>
      <tilted>0</tilted></_>
    <_>
      <rects>
        <_>
          13 11 2 6 -1.</_>
        <_>
          13 14 2 3 2.</_></rects>
      <tilted>0</tilted></_>
    <_>
      <rects>
        <_>
          13 13 3 2 -1.</_>
        <_>
          14 13 1 2 3.</_></rects>
      <tilted>0</tilted></_>
    <_>
      <rects>
        <_>
          13 13 4 2 -1.</_>
        <_>
          13 13 2 1 2.</_>
        <_>
          15 14 2 1 2.</_></rects>
      <tilted>0</tilted></_>
    <_>
      <rects>
        <_>
          13 14 2 4 -1.</_>
        <_>
          14 14 1 4 2.</_></rects>
      <tilted>0</tilted></_>
    <_>
      <rects>
        <_>
          14 7 1 3 -1.</_>
        <_>
          14 8 1 1 3.</_></rects>
      <tilted>0</tilted></_>
    <_>
      <rects>
        <_>
          14 14 2 2 -1.</_>
        <_>
          14 15 2 1 2.</_></rects>
      <tilted>0</tilted></_>
    <_>
      <rects>
        <_>
          14 14 6 1 -1.</_>
        <_>
          17 14 3 1 2.</_></rects>
      <tilted>0</tilted></_>
    <_>
      <rects>
        <_>
          14 14 4 2 -1.</_>
        <_>
          14 15 4 1 2.</_></rects>
      <tilted>0</tilted></_>
    <_>
      <rects>
        <_>
          14 15 6 9 -1.</_>
        <_>
          14 18 6 3 3.</_></rects>
      <tilted>0</tilted></_>
    <_>
      <rects>
        <_>
          15 15 2 2 -1.</_>
        <_>
          15 15 1 1 2.</_>
        <_>
          16 16 1 1 2.</_></rects>
      <tilted>0</tilted></_>
    <_>
      <rects>
        <_>
          17 3 6 6 -1.</_>
        <_>
          17 5 6 2 3.</_></rects>
      <tilted>0</tilted></_>
    <_>
      <rects>
        <_>
          18 0 4 1 -1.</_>
        <_>
          20 0 2 1 2.</_></rects>
      <tilted>0</tilted></_>
    <_>
      <rects>
        <_>
          18 15 10 6 -1.</_>
        <_>
          18 17 10 2 3.</_></rects>
      <tilted>0</tilted></_>
    <_>
      <rects>
        <_>
          18 16 10 14 -1.</_>
        <_>
          18 16 5 7 2.</_>
        <_>
          23 23 5 7 2.</_></rects>
      <tilted>0</tilted></_>
    <_>
      <rects>
        <_>
          19 5 3 12 -1.</_>
        <_>
          20 5 1 12 3.</_></rects>
      <tilted>0</tilted></_>
    <_>
      <rects>
        <_>
          21 0 8 12 -1.</_>
        <_>
          25 0 4 12 2.</_></rects>
      <tilted>0</tilted></_>
    <_>
      <rects>
        <_>
          22 5 6 22 -1.</_>
        <_>
          24 5 2 22 3.</_></rects>
      <tilted>0</tilted></_>
    <_>
      <rects>
        <_>
          25 18 2 6 -1.</_>
        <_>
          26 18 1 6 2.</_></rects>
      <tilted>0</tilted></_>
    <_>
      <rects>
        <_>
          28 2 2 9 -1.</_>
        <_>
          28 5 2 3 3.</_></rects>
      <tilted>0</tilted></_>
    <_>
      <rects>
        <_>
          29 2 1 28 -1.</_>
        <_>
          29 16 1 14 2.</_></rects>
      <tilted>0</tilted></_>
    <_>
      <rects>
        <_>
          29 3 1 27 -1.</_>
        <_>
          29 12 1 9 3.</_></rects>
      <tilted>0</tilted></_>
    <_>
      <rects>
        <_>
          29 4 1 22 -1.</_>
        <_>
          29 15 1 11 2.</_></rects>
      <tilted>0</tilted></_>
    <_>
      <rects>
        <_>
          29 5 1 22 -1.</_>
        <_>
          29 16 1 11 2.</_></rects>
      <tilted>0</tilted></_>
    <_>
      <rects>
        <_>
          29 14 1 16 -1.</_>
        <_>
          29 22 1 8 2.</_></rects>
      <tilted>0</tilted></_>
    <_>
      <rects>
        <_>
          29 17 1 12 -1.</_>
        <_>
          29 21 1 4 3.</_></rects>
      <tilted>0</tilted></_></features></cascade>
</opencv_storage>
